digraph Tree {
node [shape=box] ;
0 [label="recipe <= 0.5\ngini = 0.5\nsamples = 7383\nvalue = [3592, 3791]"] ;
1 [label="image_ratio <= 0.455\ngini = 0.5\nsamples = 7030\nvalue = [3554, 3476]"] ;
0 -> 1 [labeldistance=2.5, labelangle=45, headlabel="True"] ;
2 [label="image_ratio <= 0.0\ngini = 0.499\nsamples = 6087\nvalue = [2924, 3163]"] ;
1 -> 2 ;
3 [label="html_ratio <= 0.162\ngini = 0.489\nsamples = 726\nvalue = [417, 309]"] ;
2 -> 3 ;
4 [label="html_ratio <= 0.137\ngini = 0.423\nsamples = 46\nvalue = [32, 14]"] ;
3 -> 4 ;
5 [label="html_ratio <= 0.116\ngini = 0.492\nsamples = 16\nvalue = [7, 9]"] ;
4 -> 5 ;
6 [label="html_ratio <= 0.102\ngini = 0.278\nsamples = 6\nvalue = [5, 1]"] ;
5 -> 6 ;
7 [label="html_ratio <= 0.1\ngini = 0.444\nsamples = 3\nvalue = [2, 1]"] ;
6 -> 7 ;
8 [label="gini = 0.0\nsamples = 2\nvalue = [2, 0]"] ;
7 -> 8 ;
9 [label="gini = 0.0\nsamples = 1\nvalue = [0, 1]"] ;
7 -> 9 ;
10 [label="gini = 0.0\nsamples = 3\nvalue = [3, 0]"] ;
6 -> 10 ;
11 [label="html_ratio <= 0.128\ngini = 0.32\nsamples = 10\nvalue = [2, 8]"] ;
5 -> 11 ;
12 [label="html_ratio <= 0.126\ngini = 0.48\nsamples = 5\nvalue = [2, 3]"] ;
11 -> 12 ;
13 [label="gini = 0.0\nsamples = 3\nvalue = [0, 3]"] ;
12 -> 13 ;
14 [label="gini = 0.0\nsamples = 2\nvalue = [2, 0]"] ;
12 -> 14 ;
15 [label="gini = 0.0\nsamples = 5\nvalue = [0, 5]"] ;
11 -> 15 ;
16 [label="html_ratio <= 0.149\ngini = 0.278\nsamples = 30\nvalue = [25, 5]"] ;
4 -> 16 ;
17 [label="html_ratio <= 0.148\ngini = 0.355\nsamples = 13\nvalue = [10, 3]"] ;
16 -> 17 ;
18 [label="html_ratio <= 0.145\ngini = 0.278\nsamples = 12\nvalue = [10, 2]"] ;
17 -> 18 ;
19 [label="html_ratio <= 0.145\ngini = 0.375\nsamples = 8\nvalue = [6, 2]"] ;
18 -> 19 ;
20 [label="html_ratio <= 0.142\ngini = 0.245\nsamples = 7\nvalue = [6, 1]"] ;
19 -> 20 ;
21 [label="gini = 0.0\nsamples = 3\nvalue = [3, 0]"] ;
20 -> 21 ;
22 [label="html_ratio <= 0.142\ngini = 0.375\nsamples = 4\nvalue = [3, 1]"] ;
20 -> 22 ;
23 [label="gini = 0.0\nsamples = 1\nvalue = [0, 1]"] ;
22 -> 23 ;
24 [label="gini = 0.0\nsamples = 3\nvalue = [3, 0]"] ;
22 -> 24 ;
25 [label="gini = 0.0\nsamples = 1\nvalue = [0, 1]"] ;
19 -> 25 ;
26 [label="gini = 0.0\nsamples = 4\nvalue = [4, 0]"] ;
18 -> 26 ;
27 [label="gini = 0.0\nsamples = 1\nvalue = [0, 1]"] ;
17 -> 27 ;
28 [label="html_ratio <= 0.152\ngini = 0.208\nsamples = 17\nvalue = [15, 2]"] ;
16 -> 28 ;
29 [label="gini = 0.0\nsamples = 6\nvalue = [6, 0]"] ;
28 -> 29 ;
30 [label="html_ratio <= 0.153\ngini = 0.298\nsamples = 11\nvalue = [9, 2]"] ;
28 -> 30 ;
31 [label="gini = 0.0\nsamples = 1\nvalue = [0, 1]"] ;
30 -> 31 ;
32 [label="html_ratio <= 0.16\ngini = 0.18\nsamples = 10\nvalue = [9, 1]"] ;
30 -> 32 ;
33 [label="gini = 0.0\nsamples = 6\nvalue = [6, 0]"] ;
32 -> 33 ;
34 [label="html_ratio <= 0.161\ngini = 0.375\nsamples = 4\nvalue = [3, 1]"] ;
32 -> 34 ;
35 [label="gini = 0.0\nsamples = 1\nvalue = [0, 1]"] ;
34 -> 35 ;
36 [label="gini = 0.0\nsamples = 3\nvalue = [3, 0]"] ;
34 -> 36 ;
37 [label="html_ratio <= 0.165\ngini = 0.491\nsamples = 680\nvalue = [385, 295]"] ;
3 -> 37 ;
38 [label="html_ratio <= 0.163\ngini = 0.42\nsamples = 10\nvalue = [3, 7]"] ;
37 -> 38 ;
39 [label="html_ratio <= 0.163\ngini = 0.5\nsamples = 4\nvalue = [2, 2]"] ;
38 -> 39 ;
40 [label="gini = 0.0\nsamples = 1\nvalue = [0, 1]"] ;
39 -> 40 ;
41 [label="html_ratio <= 0.163\ngini = 0.444\nsamples = 3\nvalue = [2, 1]"] ;
39 -> 41 ;
42 [label="gini = 0.0\nsamples = 1\nvalue = [1, 0]"] ;
41 -> 42 ;
43 [label="html_ratio <= 0.163\ngini = 0.5\nsamples = 2\nvalue = [1, 1]"] ;
41 -> 43 ;
44 [label="gini = 0.0\nsamples = 1\nvalue = [0, 1]"] ;
43 -> 44 ;
45 [label="gini = 0.0\nsamples = 1\nvalue = [1, 0]"] ;
43 -> 45 ;
46 [label="html_ratio <= 0.164\ngini = 0.278\nsamples = 6\nvalue = [1, 5]"] ;
38 -> 46 ;
47 [label="gini = 0.0\nsamples = 3\nvalue = [0, 3]"] ;
46 -> 47 ;
48 [label="html_ratio <= 0.164\ngini = 0.444\nsamples = 3\nvalue = [1, 2]"] ;
46 -> 48 ;
49 [label="gini = 0.0\nsamples = 1\nvalue = [1, 0]"] ;
48 -> 49 ;
50 [label="gini = 0.0\nsamples = 2\nvalue = [0, 2]"] ;
48 -> 50 ;
51 [label="html_ratio <= 0.166\ngini = 0.49\nsamples = 670\nvalue = [382, 288]"] ;
37 -> 51 ;
52 [label="gini = 0.0\nsamples = 3\nvalue = [3, 0]"] ;
51 -> 52 ;
53 [label="html_ratio <= 0.167\ngini = 0.491\nsamples = 667\nvalue = [379, 288]"] ;
51 -> 53 ;
54 [label="gini = 0.0\nsamples = 2\nvalue = [0, 2]"] ;
53 -> 54 ;
55 [label="html_ratio <= 0.168\ngini = 0.49\nsamples = 665\nvalue = [379, 286]"] ;
53 -> 55 ;
56 [label="gini = 0.0\nsamples = 3\nvalue = [3, 0]"] ;
55 -> 56 ;
57 [label="html_ratio <= 0.33\ngini = 0.491\nsamples = 662\nvalue = [376, 286]"] ;
55 -> 57 ;
58 [label="html_ratio <= 0.266\ngini = 0.493\nsamples = 579\nvalue = [323, 256]"] ;
57 -> 58 ;
59 [label="html_ratio <= 0.26\ngini = 0.486\nsamples = 381\nvalue = [222, 159]"] ;
58 -> 59 ;
60 [label="html_ratio <= 0.256\ngini = 0.49\nsamples = 361\nvalue = [206, 155]"] ;
59 -> 60 ;
61 [label="html_ratio <= 0.249\ngini = 0.485\nsamples = 340\nvalue = [199, 141]"] ;
60 -> 61 ;
62 [label="html_ratio <= 0.237\ngini = 0.49\nsamples = 303\nvalue = [173, 130]"] ;
61 -> 62 ;
63 [label="html_ratio <= 0.228\ngini = 0.482\nsamples = 240\nvalue = [143, 97]"] ;
62 -> 63 ;
64 [label="html_ratio <= 0.219\ngini = 0.495\nsamples = 196\nvalue = [108, 88]"] ;
63 -> 64 ;
65 [label="html_ratio <= 0.215\ngini = 0.486\nsamples = 158\nvalue = [92, 66]"] ;
64 -> 65 ;
66 [label="html_ratio <= 0.215\ngini = 0.494\nsamples = 142\nvalue = [79, 63]"] ;
65 -> 66 ;
67 [label="html_ratio <= 0.212\ngini = 0.492\nsamples = 140\nvalue = [79, 61]"] ;
66 -> 67 ;
68 [label="html_ratio <= 0.208\ngini = 0.495\nsamples = 131\nvalue = [72, 59]"] ;
67 -> 68 ;
69 [label="html_ratio <= 0.206\ngini = 0.486\nsamples = 120\nvalue = [70, 50]"] ;
68 -> 69 ;
70 [label="html_ratio <= 0.206\ngini = 0.494\nsamples = 112\nvalue = [62, 50]"] ;
69 -> 70 ;
71 [label="html_ratio <= 0.205\ngini = 0.492\nsamples = 110\nvalue = [62, 48]"] ;
70 -> 71 ;
72 [label="image_ratio <= -0.5\ngini = 0.495\nsamples = 107\nvalue = [59, 48]"] ;
71 -> 72 ;
73 [label="html_ratio <= 0.174\ngini = 0.496\nsamples = 105\nvalue = [57, 48]"] ;
72 -> 73 ;
74 [label="html_ratio <= 0.171\ngini = 0.48\nsamples = 15\nvalue = [6, 9]"] ;
73 -> 74 ;
75 [label="html_ratio <= 0.17\ngini = 0.49\nsamples = 7\nvalue = [4, 3]"] ;
74 -> 75 ;
76 [label="html_ratio <= 0.169\ngini = 0.48\nsamples = 5\nvalue = [2, 3]"] ;
75 -> 76 ;
77 [label="html_ratio <= 0.168\ngini = 0.444\nsamples = 3\nvalue = [2, 1]"] ;
76 -> 77 ;
78 [label="gini = 0.0\nsamples = 1\nvalue = [0, 1]"] ;
77 -> 78 ;
79 [label="gini = 0.0\nsamples = 2\nvalue = [2, 0]"] ;
77 -> 79 ;
80 [label="gini = 0.0\nsamples = 2\nvalue = [0, 2]"] ;
76 -> 80 ;
81 [label="gini = 0.0\nsamples = 2\nvalue = [2, 0]"] ;
75 -> 81 ;
82 [label="html_ratio <= 0.172\ngini = 0.375\nsamples = 8\nvalue = [2, 6]"] ;
74 -> 82 ;
83 [label="gini = 0.0\nsamples = 2\nvalue = [0, 2]"] ;
82 -> 83 ;
84 [label="html_ratio <= 0.172\ngini = 0.444\nsamples = 6\nvalue = [2, 4]"] ;
82 -> 84 ;
85 [label="gini = 0.0\nsamples = 1\nvalue = [1, 0]"] ;
84 -> 85 ;
86 [label="html_ratio <= 0.173\ngini = 0.32\nsamples = 5\nvalue = [1, 4]"] ;
84 -> 86 ;
87 [label="gini = 0.0\nsamples = 2\nvalue = [0, 2]"] ;
86 -> 87 ;
88 [label="html_ratio <= 0.174\ngini = 0.444\nsamples = 3\nvalue = [1, 2]"] ;
86 -> 88 ;
89 [label="gini = 0.0\nsamples = 1\nvalue = [1, 0]"] ;
88 -> 89 ;
90 [label="gini = 0.0\nsamples = 2\nvalue = [0, 2]"] ;
88 -> 90 ;
91 [label="html_ratio <= 0.182\ngini = 0.491\nsamples = 90\nvalue = [51, 39]"] ;
73 -> 91 ;
92 [label="html_ratio <= 0.18\ngini = 0.337\nsamples = 14\nvalue = [11, 3]"] ;
91 -> 92 ;
93 [label="html_ratio <= 0.179\ngini = 0.42\nsamples = 10\nvalue = [7, 3]"] ;
92 -> 93 ;
94 [label="html_ratio <= 0.175\ngini = 0.346\nsamples = 9\nvalue = [7, 2]"] ;
93 -> 94 ;
95 [label="html_ratio <= 0.175\ngini = 0.5\nsamples = 2\nvalue = [1, 1]"] ;
94 -> 95 ;
96 [label="gini = 0.0\nsamples = 1\nvalue = [1, 0]"] ;
95 -> 96 ;
97 [label="gini = 0.0\nsamples = 1\nvalue = [0, 1]"] ;
95 -> 97 ;
98 [label="html_ratio <= 0.178\ngini = 0.245\nsamples = 7\nvalue = [6, 1]"] ;
94 -> 98 ;
99 [label="gini = 0.0\nsamples = 4\nvalue = [4, 0]"] ;
98 -> 99 ;
100 [label="html_ratio <= 0.179\ngini = 0.444\nsamples = 3\nvalue = [2, 1]"] ;
98 -> 100 ;
101 [label="gini = 0.0\nsamples = 1\nvalue = [0, 1]"] ;
100 -> 101 ;
102 [label="gini = 0.0\nsamples = 2\nvalue = [2, 0]"] ;
100 -> 102 ;
103 [label="gini = 0.0\nsamples = 1\nvalue = [0, 1]"] ;
93 -> 103 ;
104 [label="gini = 0.0\nsamples = 4\nvalue = [4, 0]"] ;
92 -> 104 ;
105 [label="html_ratio <= 0.184\ngini = 0.499\nsamples = 76\nvalue = [40, 36]"] ;
91 -> 105 ;
106 [label="gini = 0.0\nsamples = 3\nvalue = [0, 3]"] ;
105 -> 106 ;
107 [label="html_ratio <= 0.186\ngini = 0.495\nsamples = 73\nvalue = [40, 33]"] ;
105 -> 107 ;
108 [label="html_ratio <= 0.184\ngini = 0.32\nsamples = 5\nvalue = [4, 1]"] ;
107 -> 108 ;
109 [label="html_ratio <= 0.184\ngini = 0.5\nsamples = 2\nvalue = [1, 1]"] ;
108 -> 109 ;
110 [label="gini = 0.0\nsamples = 1\nvalue = [1, 0]"] ;
109 -> 110 ;
111 [label="gini = 0.0\nsamples = 1\nvalue = [0, 1]"] ;
109 -> 111 ;
112 [label="gini = 0.0\nsamples = 3\nvalue = [3, 0]"] ;
108 -> 112 ;
113 [label="html_ratio <= 0.187\ngini = 0.498\nsamples = 68\nvalue = [36, 32]"] ;
107 -> 113 ;
114 [label="gini = 0.0\nsamples = 2\nvalue = [0, 2]"] ;
113 -> 114 ;
115 [label="html_ratio <= 0.188\ngini = 0.496\nsamples = 66\nvalue = [36, 30]"] ;
113 -> 115 ;
116 [label="gini = 0.0\nsamples = 3\nvalue = [3, 0]"] ;
115 -> 116 ;
117 [label="html_ratio <= 0.194\ngini = 0.499\nsamples = 63\nvalue = [33, 30]"] ;
115 -> 117 ;
118 [label="html_ratio <= 0.194\ngini = 0.48\nsamples = 20\nvalue = [8, 12]"] ;
117 -> 118 ;
119 [label="html_ratio <= 0.19\ngini = 0.498\nsamples = 17\nvalue = [8, 9]"] ;
118 -> 119 ;
120 [label="html_ratio <= 0.189\ngini = 0.408\nsamples = 7\nvalue = [2, 5]"] ;
119 -> 120 ;
121 [label="html_ratio <= 0.188\ngini = 0.444\nsamples = 3\nvalue = [2, 1]"] ;
120 -> 121 ;
122 [label="gini = 0.0\nsamples = 1\nvalue = [0, 1]"] ;
121 -> 122 ;
123 [label="gini = 0.0\nsamples = 2\nvalue = [2, 0]"] ;
121 -> 123 ;
124 [label="gini = 0.0\nsamples = 4\nvalue = [0, 4]"] ;
120 -> 124 ;
125 [label="html_ratio <= 0.191\ngini = 0.48\nsamples = 10\nvalue = [6, 4]"] ;
119 -> 125 ;
126 [label="html_ratio <= 0.19\ngini = 0.32\nsamples = 5\nvalue = [4, 1]"] ;
125 -> 126 ;
127 [label="html_ratio <= 0.19\ngini = 0.5\nsamples = 2\nvalue = [1, 1]"] ;
126 -> 127 ;
128 [label="gini = 0.0\nsamples = 1\nvalue = [1, 0]"] ;
127 -> 128 ;
129 [label="gini = 0.0\nsamples = 1\nvalue = [0, 1]"] ;
127 -> 129 ;
130 [label="gini = 0.0\nsamples = 3\nvalue = [3, 0]"] ;
126 -> 130 ;
131 [label="html_ratio <= 0.192\ngini = 0.48\nsamples = 5\nvalue = [2, 3]"] ;
125 -> 131 ;
132 [label="gini = 0.0\nsamples = 2\nvalue = [0, 2]"] ;
131 -> 132 ;
133 [label="html_ratio <= 0.193\ngini = 0.444\nsamples = 3\nvalue = [2, 1]"] ;
131 -> 133 ;
134 [label="gini = 0.0\nsamples = 1\nvalue = [1, 0]"] ;
133 -> 134 ;
135 [label="html_ratio <= 0.193\ngini = 0.5\nsamples = 2\nvalue = [1, 1]"] ;
133 -> 135 ;
136 [label="gini = 0.0\nsamples = 1\nvalue = [0, 1]"] ;
135 -> 136 ;
137 [label="gini = 0.0\nsamples = 1\nvalue = [1, 0]"] ;
135 -> 137 ;
138 [label="gini = 0.0\nsamples = 3\nvalue = [0, 3]"] ;
118 -> 138 ;
139 [label="html_ratio <= 0.198\ngini = 0.487\nsamples = 43\nvalue = [25, 18]"] ;
117 -> 139 ;
140 [label="html_ratio <= 0.196\ngini = 0.245\nsamples = 7\nvalue = [6, 1]"] ;
139 -> 140 ;
141 [label="gini = 0.0\nsamples = 3\nvalue = [3, 0]"] ;
140 -> 141 ;
142 [label="html_ratio <= 0.197\ngini = 0.375\nsamples = 4\nvalue = [3, 1]"] ;
140 -> 142 ;
143 [label="gini = 0.0\nsamples = 1\nvalue = [0, 1]"] ;
142 -> 143 ;
144 [label="gini = 0.0\nsamples = 3\nvalue = [3, 0]"] ;
142 -> 144 ;
145 [label="html_ratio <= 0.2\ngini = 0.498\nsamples = 36\nvalue = [19, 17]"] ;
139 -> 145 ;
146 [label="html_ratio <= 0.199\ngini = 0.42\nsamples = 10\nvalue = [3, 7]"] ;
145 -> 146 ;
147 [label="html_ratio <= 0.199\ngini = 0.49\nsamples = 7\nvalue = [3, 4]"] ;
146 -> 147 ;
148 [label="gini = 0.0\nsamples = 2\nvalue = [0, 2]"] ;
147 -> 148 ;
149 [label="html_ratio <= 0.199\ngini = 0.48\nsamples = 5\nvalue = [3, 2]"] ;
147 -> 149 ;
150 [label="gini = 0.0\nsamples = 2\nvalue = [2, 0]"] ;
149 -> 150 ;
151 [label="html_ratio <= 0.199\ngini = 0.444\nsamples = 3\nvalue = [1, 2]"] ;
149 -> 151 ;
152 [label="gini = 0.0\nsamples = 2\nvalue = [0, 2]"] ;
151 -> 152 ;
153 [label="gini = 0.0\nsamples = 1\nvalue = [1, 0]"] ;
151 -> 153 ;
154 [label="gini = 0.0\nsamples = 3\nvalue = [0, 3]"] ;
146 -> 154 ;
155 [label="html_ratio <= 0.201\ngini = 0.473\nsamples = 26\nvalue = [16, 10]"] ;
145 -> 155 ;
156 [label="gini = 0.0\nsamples = 4\nvalue = [4, 0]"] ;
155 -> 156 ;
157 [label="html_ratio <= 0.204\ngini = 0.496\nsamples = 22\nvalue = [12, 10]"] ;
155 -> 157 ;
158 [label="html_ratio <= 0.204\ngini = 0.469\nsamples = 16\nvalue = [10, 6]"] ;
157 -> 158 ;
159 [label="html_ratio <= 0.201\ngini = 0.497\nsamples = 13\nvalue = [7, 6]"] ;
158 -> 159 ;
160 [label="gini = 0.0\nsamples = 1\nvalue = [0, 1]"] ;
159 -> 160 ;
161 [label="html_ratio <= 0.202\ngini = 0.486\nsamples = 12\nvalue = [7, 5]"] ;
159 -> 161 ;
162 [label="html_ratio <= 0.202\ngini = 0.32\nsamples = 5\nvalue = [4, 1]"] ;
161 -> 162 ;
163 [label="html_ratio <= 0.202\ngini = 0.5\nsamples = 2\nvalue = [1, 1]"] ;
162 -> 163 ;
164 [label="gini = 0.0\nsamples = 1\nvalue = [1, 0]"] ;
163 -> 164 ;
165 [label="gini = 0.0\nsamples = 1\nvalue = [0, 1]"] ;
163 -> 165 ;
166 [label="gini = 0.0\nsamples = 3\nvalue = [3, 0]"] ;
162 -> 166 ;
167 [label="html_ratio <= 0.203\ngini = 0.49\nsamples = 7\nvalue = [3, 4]"] ;
161 -> 167 ;
168 [label="gini = 0.0\nsamples = 1\nvalue = [0, 1]"] ;
167 -> 168 ;
169 [label="html_ratio <= 0.203\ngini = 0.5\nsamples = 6\nvalue = [3, 3]"] ;
167 -> 169 ;
170 [label="gini = 0.0\nsamples = 1\nvalue = [1, 0]"] ;
169 -> 170 ;
171 [label="html_ratio <= 0.203\ngini = 0.48\nsamples = 5\nvalue = [2, 3]"] ;
169 -> 171 ;
172 [label="gini = 0.0\nsamples = 1\nvalue = [0, 1]"] ;
171 -> 172 ;
173 [label="html_ratio <= 0.203\ngini = 0.5\nsamples = 4\nvalue = [2, 2]"] ;
171 -> 173 ;
174 [label="gini = 0.0\nsamples = 1\nvalue = [1, 0]"] ;
173 -> 174 ;
175 [label="html_ratio <= 0.203\ngini = 0.444\nsamples = 3\nvalue = [1, 2]"] ;
173 -> 175 ;
176 [label="gini = 0.0\nsamples = 1\nvalue = [0, 1]"] ;
175 -> 176 ;
177 [label="html_ratio <= 0.204\ngini = 0.5\nsamples = 2\nvalue = [1, 1]"] ;
175 -> 177 ;
178 [label="gini = 0.0\nsamples = 1\nvalue = [1, 0]"] ;
177 -> 178 ;
179 [label="gini = 0.0\nsamples = 1\nvalue = [0, 1]"] ;
177 -> 179 ;
180 [label="gini = 0.0\nsamples = 3\nvalue = [3, 0]"] ;
158 -> 180 ;
181 [label="html_ratio <= 0.204\ngini = 0.444\nsamples = 6\nvalue = [2, 4]"] ;
157 -> 181 ;
182 [label="gini = 0.0\nsamples = 3\nvalue = [0, 3]"] ;
181 -> 182 ;
183 [label="html_ratio <= 0.205\ngini = 0.444\nsamples = 3\nvalue = [2, 1]"] ;
181 -> 183 ;
184 [label="gini = 0.0\nsamples = 2\nvalue = [2, 0]"] ;
183 -> 184 ;
185 [label="gini = 0.0\nsamples = 1\nvalue = [0, 1]"] ;
183 -> 185 ;
186 [label="gini = 0.0\nsamples = 2\nvalue = [2, 0]"] ;
72 -> 186 ;
187 [label="gini = 0.0\nsamples = 3\nvalue = [3, 0]"] ;
71 -> 187 ;
188 [label="gini = 0.0\nsamples = 2\nvalue = [0, 2]"] ;
70 -> 188 ;
189 [label="gini = 0.0\nsamples = 8\nvalue = [8, 0]"] ;
69 -> 189 ;
190 [label="html_ratio <= 0.211\ngini = 0.298\nsamples = 11\nvalue = [2, 9]"] ;
68 -> 190 ;
191 [label="gini = 0.0\nsamples = 6\nvalue = [0, 6]"] ;
190 -> 191 ;
192 [label="html_ratio <= 0.211\ngini = 0.48\nsamples = 5\nvalue = [2, 3]"] ;
190 -> 192 ;
193 [label="gini = 0.0\nsamples = 1\nvalue = [1, 0]"] ;
192 -> 193 ;
194 [label="html_ratio <= 0.212\ngini = 0.375\nsamples = 4\nvalue = [1, 3]"] ;
192 -> 194 ;
195 [label="gini = 0.0\nsamples = 2\nvalue = [0, 2]"] ;
194 -> 195 ;
196 [label="html_ratio <= 0.212\ngini = 0.5\nsamples = 2\nvalue = [1, 1]"] ;
194 -> 196 ;
197 [label="gini = 0.0\nsamples = 1\nvalue = [1, 0]"] ;
196 -> 197 ;
198 [label="gini = 0.0\nsamples = 1\nvalue = [0, 1]"] ;
196 -> 198 ;
199 [label="html_ratio <= 0.214\ngini = 0.346\nsamples = 9\nvalue = [7, 2]"] ;
67 -> 199 ;
200 [label="gini = 0.0\nsamples = 3\nvalue = [3, 0]"] ;
199 -> 200 ;
201 [label="html_ratio <= 0.214\ngini = 0.444\nsamples = 6\nvalue = [4, 2]"] ;
199 -> 201 ;
202 [label="gini = 0.0\nsamples = 1\nvalue = [0, 1]"] ;
201 -> 202 ;
203 [label="html_ratio <= 0.214\ngini = 0.32\nsamples = 5\nvalue = [4, 1]"] ;
201 -> 203 ;
204 [label="gini = 0.0\nsamples = 2\nvalue = [2, 0]"] ;
203 -> 204 ;
205 [label="html_ratio <= 0.214\ngini = 0.444\nsamples = 3\nvalue = [2, 1]"] ;
203 -> 205 ;
206 [label="gini = 0.0\nsamples = 1\nvalue = [0, 1]"] ;
205 -> 206 ;
207 [label="gini = 0.0\nsamples = 2\nvalue = [2, 0]"] ;
205 -> 207 ;
208 [label="gini = 0.0\nsamples = 2\nvalue = [0, 2]"] ;
66 -> 208 ;
209 [label="html_ratio <= 0.218\ngini = 0.305\nsamples = 16\nvalue = [13, 3]"] ;
65 -> 209 ;
210 [label="html_ratio <= 0.217\ngini = 0.165\nsamples = 11\nvalue = [10, 1]"] ;
209 -> 210 ;
211 [label="gini = 0.0\nsamples = 5\nvalue = [5, 0]"] ;
210 -> 211 ;
212 [label="html_ratio <= 0.217\ngini = 0.278\nsamples = 6\nvalue = [5, 1]"] ;
210 -> 212 ;
213 [label="gini = 0.0\nsamples = 1\nvalue = [0, 1]"] ;
212 -> 213 ;
214 [label="gini = 0.0\nsamples = 5\nvalue = [5, 0]"] ;
212 -> 214 ;
215 [label="html_ratio <= 0.219\ngini = 0.48\nsamples = 5\nvalue = [3, 2]"] ;
209 -> 215 ;
216 [label="html_ratio <= 0.219\ngini = 0.444\nsamples = 3\nvalue = [1, 2]"] ;
215 -> 216 ;
217 [label="gini = 0.0\nsamples = 1\nvalue = [0, 1]"] ;
216 -> 217 ;
218 [label="html_ratio <= 0.219\ngini = 0.5\nsamples = 2\nvalue = [1, 1]"] ;
216 -> 218 ;
219 [label="gini = 0.0\nsamples = 1\nvalue = [1, 0]"] ;
218 -> 219 ;
220 [label="gini = 0.0\nsamples = 1\nvalue = [0, 1]"] ;
218 -> 220 ;
221 [label="gini = 0.0\nsamples = 2\nvalue = [2, 0]"] ;
215 -> 221 ;
222 [label="html_ratio <= 0.222\ngini = 0.488\nsamples = 38\nvalue = [16, 22]"] ;
64 -> 222 ;
223 [label="html_ratio <= 0.221\ngini = 0.198\nsamples = 9\nvalue = [1, 8]"] ;
222 -> 223 ;
224 [label="gini = 0.0\nsamples = 5\nvalue = [0, 5]"] ;
223 -> 224 ;
225 [label="html_ratio <= 0.221\ngini = 0.375\nsamples = 4\nvalue = [1, 3]"] ;
223 -> 225 ;
226 [label="gini = 0.0\nsamples = 1\nvalue = [1, 0]"] ;
225 -> 226 ;
227 [label="gini = 0.0\nsamples = 3\nvalue = [0, 3]"] ;
225 -> 227 ;
228 [label="html_ratio <= 0.228\ngini = 0.499\nsamples = 29\nvalue = [15, 14]"] ;
222 -> 228 ;
229 [label="html_ratio <= 0.223\ngini = 0.494\nsamples = 27\nvalue = [15, 12]"] ;
228 -> 229 ;
230 [label="gini = 0.0\nsamples = 2\nvalue = [2, 0]"] ;
229 -> 230 ;
231 [label="html_ratio <= 0.224\ngini = 0.499\nsamples = 25\nvalue = [13, 12]"] ;
229 -> 231 ;
232 [label="gini = 0.0\nsamples = 3\nvalue = [0, 3]"] ;
231 -> 232 ;
233 [label="html_ratio <= 0.224\ngini = 0.483\nsamples = 22\nvalue = [13, 9]"] ;
231 -> 233 ;
234 [label="gini = 0.0\nsamples = 2\nvalue = [2, 0]"] ;
233 -> 234 ;
235 [label="html_ratio <= 0.224\ngini = 0.495\nsamples = 20\nvalue = [11, 9]"] ;
233 -> 235 ;
236 [label="gini = 0.0\nsamples = 2\nvalue = [0, 2]"] ;
235 -> 236 ;
237 [label="html_ratio <= 0.226\ngini = 0.475\nsamples = 18\nvalue = [11, 7]"] ;
235 -> 237 ;
238 [label="html_ratio <= 0.225\ngini = 0.497\nsamples = 13\nvalue = [7, 6]"] ;
237 -> 238 ;
239 [label="html_ratio <= 0.225\ngini = 0.408\nsamples = 7\nvalue = [5, 2]"] ;
238 -> 239 ;
240 [label="html_ratio <= 0.224\ngini = 0.5\nsamples = 4\nvalue = [2, 2]"] ;
239 -> 240 ;
241 [label="gini = 0.0\nsamples = 1\nvalue = [1, 0]"] ;
240 -> 241 ;
242 [label="html_ratio <= 0.225\ngini = 0.444\nsamples = 3\nvalue = [1, 2]"] ;
240 -> 242 ;
243 [label="gini = 0.0\nsamples = 1\nvalue = [0, 1]"] ;
242 -> 243 ;
244 [label="html_ratio <= 0.225\ngini = 0.5\nsamples = 2\nvalue = [1, 1]"] ;
242 -> 244 ;
245 [label="gini = 0.0\nsamples = 1\nvalue = [1, 0]"] ;
244 -> 245 ;
246 [label="gini = 0.0\nsamples = 1\nvalue = [0, 1]"] ;
244 -> 246 ;
247 [label="gini = 0.0\nsamples = 3\nvalue = [3, 0]"] ;
239 -> 247 ;
248 [label="html_ratio <= 0.226\ngini = 0.444\nsamples = 6\nvalue = [2, 4]"] ;
238 -> 248 ;
249 [label="gini = 0.0\nsamples = 2\nvalue = [0, 2]"] ;
248 -> 249 ;
250 [label="html_ratio <= 0.226\ngini = 0.5\nsamples = 4\nvalue = [2, 2]"] ;
248 -> 250 ;
251 [label="gini = 0.0\nsamples = 1\nvalue = [1, 0]"] ;
250 -> 251 ;
252 [label="html_ratio <= 0.226\ngini = 0.444\nsamples = 3\nvalue = [1, 2]"] ;
250 -> 252 ;
253 [label="gini = 0.0\nsamples = 1\nvalue = [0, 1]"] ;
252 -> 253 ;
254 [label="html_ratio <= 0.226\ngini = 0.5\nsamples = 2\nvalue = [1, 1]"] ;
252 -> 254 ;
255 [label="gini = 0.0\nsamples = 1\nvalue = [1, 0]"] ;
254 -> 255 ;
256 [label="gini = 0.0\nsamples = 1\nvalue = [0, 1]"] ;
254 -> 256 ;
257 [label="html_ratio <= 0.227\ngini = 0.32\nsamples = 5\nvalue = [4, 1]"] ;
237 -> 257 ;
258 [label="gini = 0.0\nsamples = 3\nvalue = [3, 0]"] ;
257 -> 258 ;
259 [label="html_ratio <= 0.227\ngini = 0.5\nsamples = 2\nvalue = [1, 1]"] ;
257 -> 259 ;
260 [label="gini = 0.0\nsamples = 1\nvalue = [0, 1]"] ;
259 -> 260 ;
261 [label="gini = 0.0\nsamples = 1\nvalue = [1, 0]"] ;
259 -> 261 ;
262 [label="gini = 0.0\nsamples = 2\nvalue = [0, 2]"] ;
228 -> 262 ;
263 [label="html_ratio <= 0.234\ngini = 0.325\nsamples = 44\nvalue = [35, 9]"] ;
63 -> 263 ;
264 [label="html_ratio <= 0.232\ngini = 0.245\nsamples = 28\nvalue = [24, 4]"] ;
263 -> 264 ;
265 [label="html_ratio <= 0.231\ngini = 0.32\nsamples = 20\nvalue = [16, 4]"] ;
264 -> 265 ;
266 [label="html_ratio <= 0.23\ngini = 0.266\nsamples = 19\nvalue = [16, 3]"] ;
265 -> 266 ;
267 [label="html_ratio <= 0.229\ngini = 0.408\nsamples = 7\nvalue = [5, 2]"] ;
266 -> 267 ;
268 [label="gini = 0.0\nsamples = 4\nvalue = [4, 0]"] ;
267 -> 268 ;
269 [label="html_ratio <= 0.229\ngini = 0.444\nsamples = 3\nvalue = [1, 2]"] ;
267 -> 269 ;
270 [label="gini = 0.0\nsamples = 1\nvalue = [0, 1]"] ;
269 -> 270 ;
271 [label="html_ratio <= 0.23\ngini = 0.5\nsamples = 2\nvalue = [1, 1]"] ;
269 -> 271 ;
272 [label="gini = 0.0\nsamples = 1\nvalue = [1, 0]"] ;
271 -> 272 ;
273 [label="gini = 0.0\nsamples = 1\nvalue = [0, 1]"] ;
271 -> 273 ;
274 [label="html_ratio <= 0.23\ngini = 0.153\nsamples = 12\nvalue = [11, 1]"] ;
266 -> 274 ;
275 [label="gini = 0.0\nsamples = 9\nvalue = [9, 0]"] ;
274 -> 275 ;
276 [label="html_ratio <= 0.231\ngini = 0.444\nsamples = 3\nvalue = [2, 1]"] ;
274 -> 276 ;
277 [label="gini = 0.0\nsamples = 1\nvalue = [0, 1]"] ;
276 -> 277 ;
278 [label="gini = 0.0\nsamples = 2\nvalue = [2, 0]"] ;
276 -> 278 ;
279 [label="gini = 0.0\nsamples = 1\nvalue = [0, 1]"] ;
265 -> 279 ;
280 [label="gini = 0.0\nsamples = 8\nvalue = [8, 0]"] ;
264 -> 280 ;
281 [label="html_ratio <= 0.235\ngini = 0.43\nsamples = 16\nvalue = [11, 5]"] ;
263 -> 281 ;
282 [label="html_ratio <= 0.234\ngini = 0.48\nsamples = 5\nvalue = [2, 3]"] ;
281 -> 282 ;
283 [label="gini = 0.0\nsamples = 1\nvalue = [0, 1]"] ;
282 -> 283 ;
284 [label="html_ratio <= 0.235\ngini = 0.5\nsamples = 4\nvalue = [2, 2]"] ;
282 -> 284 ;
285 [label="gini = 0.0\nsamples = 1\nvalue = [1, 0]"] ;
284 -> 285 ;
286 [label="html_ratio <= 0.235\ngini = 0.444\nsamples = 3\nvalue = [1, 2]"] ;
284 -> 286 ;
287 [label="gini = 0.0\nsamples = 1\nvalue = [0, 1]"] ;
286 -> 287 ;
288 [label="html_ratio <= 0.235\ngini = 0.5\nsamples = 2\nvalue = [1, 1]"] ;
286 -> 288 ;
289 [label="gini = 0.0\nsamples = 1\nvalue = [1, 0]"] ;
288 -> 289 ;
290 [label="gini = 0.0\nsamples = 1\nvalue = [0, 1]"] ;
288 -> 290 ;
291 [label="html_ratio <= 0.235\ngini = 0.298\nsamples = 11\nvalue = [9, 2]"] ;
281 -> 291 ;
292 [label="gini = 0.0\nsamples = 3\nvalue = [3, 0]"] ;
291 -> 292 ;
293 [label="html_ratio <= 0.235\ngini = 0.375\nsamples = 8\nvalue = [6, 2]"] ;
291 -> 293 ;
294 [label="gini = 0.0\nsamples = 1\nvalue = [0, 1]"] ;
293 -> 294 ;
295 [label="html_ratio <= 0.236\ngini = 0.245\nsamples = 7\nvalue = [6, 1]"] ;
293 -> 295 ;
296 [label="gini = 0.0\nsamples = 4\nvalue = [4, 0]"] ;
295 -> 296 ;
297 [label="html_ratio <= 0.236\ngini = 0.444\nsamples = 3\nvalue = [2, 1]"] ;
295 -> 297 ;
298 [label="gini = 0.0\nsamples = 1\nvalue = [0, 1]"] ;
297 -> 298 ;
299 [label="gini = 0.0\nsamples = 2\nvalue = [2, 0]"] ;
297 -> 299 ;
300 [label="html_ratio <= 0.242\ngini = 0.499\nsamples = 63\nvalue = [30, 33]"] ;
62 -> 300 ;
301 [label="html_ratio <= 0.241\ngini = 0.459\nsamples = 28\nvalue = [10, 18]"] ;
300 -> 301 ;
302 [label="html_ratio <= 0.241\ngini = 0.495\nsamples = 20\nvalue = [9, 11]"] ;
301 -> 302 ;
303 [label="html_ratio <= 0.24\ngini = 0.475\nsamples = 18\nvalue = [7, 11]"] ;
302 -> 303 ;
304 [label="html_ratio <= 0.239\ngini = 0.498\nsamples = 15\nvalue = [7, 8]"] ;
303 -> 304 ;
305 [label="html_ratio <= 0.238\ngini = 0.444\nsamples = 9\nvalue = [3, 6]"] ;
304 -> 305 ;
306 [label="html_ratio <= 0.237\ngini = 0.5\nsamples = 6\nvalue = [3, 3]"] ;
305 -> 306 ;
307 [label="gini = 0.0\nsamples = 1\nvalue = [0, 1]"] ;
306 -> 307 ;
308 [label="html_ratio <= 0.237\ngini = 0.48\nsamples = 5\nvalue = [3, 2]"] ;
306 -> 308 ;
309 [label="gini = 0.0\nsamples = 1\nvalue = [1, 0]"] ;
308 -> 309 ;
310 [label="html_ratio <= 0.237\ngini = 0.5\nsamples = 4\nvalue = [2, 2]"] ;
308 -> 310 ;
311 [label="gini = 0.0\nsamples = 1\nvalue = [0, 1]"] ;
310 -> 311 ;
312 [label="html_ratio <= 0.237\ngini = 0.444\nsamples = 3\nvalue = [2, 1]"] ;
310 -> 312 ;
313 [label="gini = 0.0\nsamples = 1\nvalue = [1, 0]"] ;
312 -> 313 ;
314 [label="html_ratio <= 0.238\ngini = 0.5\nsamples = 2\nvalue = [1, 1]"] ;
312 -> 314 ;
315 [label="gini = 0.0\nsamples = 1\nvalue = [0, 1]"] ;
314 -> 315 ;
316 [label="gini = 0.0\nsamples = 1\nvalue = [1, 0]"] ;
314 -> 316 ;
317 [label="gini = 0.0\nsamples = 3\nvalue = [0, 3]"] ;
305 -> 317 ;
318 [label="html_ratio <= 0.24\ngini = 0.444\nsamples = 6\nvalue = [4, 2]"] ;
304 -> 318 ;
319 [label="gini = 0.0\nsamples = 3\nvalue = [3, 0]"] ;
318 -> 319 ;
320 [label="html_ratio <= 0.24\ngini = 0.444\nsamples = 3\nvalue = [1, 2]"] ;
318 -> 320 ;
321 [label="gini = 0.0\nsamples = 2\nvalue = [0, 2]"] ;
320 -> 321 ;
322 [label="gini = 0.0\nsamples = 1\nvalue = [1, 0]"] ;
320 -> 322 ;
323 [label="gini = 0.0\nsamples = 3\nvalue = [0, 3]"] ;
303 -> 323 ;
324 [label="gini = 0.0\nsamples = 2\nvalue = [2, 0]"] ;
302 -> 324 ;
325 [label="html_ratio <= 0.242\ngini = 0.219\nsamples = 8\nvalue = [1, 7]"] ;
301 -> 325 ;
326 [label="gini = 0.0\nsamples = 5\nvalue = [0, 5]"] ;
325 -> 326 ;
327 [label="html_ratio <= 0.242\ngini = 0.444\nsamples = 3\nvalue = [1, 2]"] ;
325 -> 327 ;
328 [label="gini = 0.0\nsamples = 1\nvalue = [1, 0]"] ;
327 -> 328 ;
329 [label="gini = 0.0\nsamples = 2\nvalue = [0, 2]"] ;
327 -> 329 ;
330 [label="html_ratio <= 0.248\ngini = 0.49\nsamples = 35\nvalue = [20, 15]"] ;
300 -> 330 ;
331 [label="image_ratio <= -0.5\ngini = 0.478\nsamples = 33\nvalue = [20, 13]"] ;
330 -> 331 ;
332 [label="html_ratio <= 0.248\ngini = 0.469\nsamples = 32\nvalue = [20, 12]"] ;
331 -> 332 ;
333 [label="html_ratio <= 0.247\ngini = 0.48\nsamples = 30\nvalue = [18, 12]"] ;
332 -> 333 ;
334 [label="html_ratio <= 0.246\ngini = 0.471\nsamples = 29\nvalue = [18, 11]"] ;
333 -> 334 ;
335 [label="html_ratio <= 0.246\ngini = 0.491\nsamples = 23\nvalue = [13, 10]"] ;
334 -> 335 ;
336 [label="html_ratio <= 0.245\ngini = 0.455\nsamples = 20\nvalue = [13, 7]"] ;
335 -> 336 ;
337 [label="html_ratio <= 0.245\ngini = 0.492\nsamples = 16\nvalue = [9, 7]"] ;
336 -> 337 ;
338 [label="html_ratio <= 0.245\ngini = 0.48\nsamples = 15\nvalue = [9, 6]"] ;
337 -> 338 ;
339 [label="html_ratio <= 0.244\ngini = 0.497\nsamples = 13\nvalue = [7, 6]"] ;
338 -> 339 ;
340 [label="html_ratio <= 0.243\ngini = 0.444\nsamples = 9\nvalue = [6, 3]"] ;
339 -> 340 ;
341 [label="html_ratio <= 0.243\ngini = 0.5\nsamples = 6\nvalue = [3, 3]"] ;
340 -> 341 ;
342 [label="gini = 0.0\nsamples = 1\nvalue = [1, 0]"] ;
341 -> 342 ;
343 [label="html_ratio <= 0.243\ngini = 0.48\nsamples = 5\nvalue = [2, 3]"] ;
341 -> 343 ;
344 [label="gini = 0.0\nsamples = 1\nvalue = [0, 1]"] ;
343 -> 344 ;
345 [label="html_ratio <= 0.243\ngini = 0.5\nsamples = 4\nvalue = [2, 2]"] ;
343 -> 345 ;
346 [label="gini = 0.0\nsamples = 1\nvalue = [1, 0]"] ;
345 -> 346 ;
347 [label="html_ratio <= 0.243\ngini = 0.444\nsamples = 3\nvalue = [1, 2]"] ;
345 -> 347 ;
348 [label="gini = 0.0\nsamples = 1\nvalue = [0, 1]"] ;
347 -> 348 ;
349 [label="html_ratio <= 0.243\ngini = 0.5\nsamples = 2\nvalue = [1, 1]"] ;
347 -> 349 ;
350 [label="gini = 0.0\nsamples = 1\nvalue = [1, 0]"] ;
349 -> 350 ;
351 [label="gini = 0.0\nsamples = 1\nvalue = [0, 1]"] ;
349 -> 351 ;
352 [label="gini = 0.0\nsamples = 3\nvalue = [3, 0]"] ;
340 -> 352 ;
353 [label="html_ratio <= 0.244\ngini = 0.375\nsamples = 4\nvalue = [1, 3]"] ;
339 -> 353 ;
354 [label="gini = 0.0\nsamples = 2\nvalue = [0, 2]"] ;
353 -> 354 ;
355 [label="html_ratio <= 0.244\ngini = 0.5\nsamples = 2\nvalue = [1, 1]"] ;
353 -> 355 ;
356 [label="gini = 0.0\nsamples = 1\nvalue = [1, 0]"] ;
355 -> 356 ;
357 [label="gini = 0.0\nsamples = 1\nvalue = [0, 1]"] ;
355 -> 357 ;
358 [label="gini = 0.0\nsamples = 2\nvalue = [2, 0]"] ;
338 -> 358 ;
359 [label="gini = 0.0\nsamples = 1\nvalue = [0, 1]"] ;
337 -> 359 ;
360 [label="gini = 0.0\nsamples = 4\nvalue = [4, 0]"] ;
336 -> 360 ;
361 [label="gini = 0.0\nsamples = 3\nvalue = [0, 3]"] ;
335 -> 361 ;
362 [label="html_ratio <= 0.247\ngini = 0.278\nsamples = 6\nvalue = [5, 1]"] ;
334 -> 362 ;
363 [label="gini = 0.0\nsamples = 3\nvalue = [3, 0]"] ;
362 -> 363 ;
364 [label="html_ratio <= 0.247\ngini = 0.444\nsamples = 3\nvalue = [2, 1]"] ;
362 -> 364 ;
365 [label="gini = 0.0\nsamples = 1\nvalue = [0, 1]"] ;
364 -> 365 ;
366 [label="gini = 0.0\nsamples = 2\nvalue = [2, 0]"] ;
364 -> 366 ;
367 [label="gini = 0.0\nsamples = 1\nvalue = [0, 1]"] ;
333 -> 367 ;
368 [label="gini = 0.0\nsamples = 2\nvalue = [2, 0]"] ;
332 -> 368 ;
369 [label="gini = 0.0\nsamples = 1\nvalue = [0, 1]"] ;
331 -> 369 ;
370 [label="gini = 0.0\nsamples = 2\nvalue = [0, 2]"] ;
330 -> 370 ;
371 [label="html_ratio <= 0.251\ngini = 0.418\nsamples = 37\nvalue = [26, 11]"] ;
61 -> 371 ;
372 [label="html_ratio <= 0.25\ngini = 0.153\nsamples = 12\nvalue = [11, 1]"] ;
371 -> 372 ;
373 [label="gini = 0.0\nsamples = 6\nvalue = [6, 0]"] ;
372 -> 373 ;
374 [label="html_ratio <= 0.251\ngini = 0.278\nsamples = 6\nvalue = [5, 1]"] ;
372 -> 374 ;
375 [label="gini = 0.0\nsamples = 1\nvalue = [0, 1]"] ;
374 -> 375 ;
376 [label="gini = 0.0\nsamples = 5\nvalue = [5, 0]"] ;
374 -> 376 ;
377 [label="html_ratio <= 0.252\ngini = 0.48\nsamples = 25\nvalue = [15, 10]"] ;
371 -> 377 ;
378 [label="gini = 0.0\nsamples = 3\nvalue = [0, 3]"] ;
377 -> 378 ;
379 [label="html_ratio <= 0.252\ngini = 0.434\nsamples = 22\nvalue = [15, 7]"] ;
377 -> 379 ;
380 [label="gini = 0.0\nsamples = 3\nvalue = [3, 0]"] ;
379 -> 380 ;
381 [label="html_ratio <= 0.256\ngini = 0.465\nsamples = 19\nvalue = [12, 7]"] ;
379 -> 381 ;
382 [label="html_ratio <= 0.255\ngini = 0.492\nsamples = 16\nvalue = [9, 7]"] ;
381 -> 382 ;
383 [label="html_ratio <= 0.254\ngini = 0.459\nsamples = 14\nvalue = [9, 5]"] ;
382 -> 383 ;
384 [label="html_ratio <= 0.253\ngini = 0.49\nsamples = 7\nvalue = [3, 4]"] ;
383 -> 384 ;
385 [label="html_ratio <= 0.253\ngini = 0.48\nsamples = 5\nvalue = [3, 2]"] ;
384 -> 385 ;
386 [label="html_ratio <= 0.253\ngini = 0.444\nsamples = 3\nvalue = [1, 2]"] ;
385 -> 386 ;
387 [label="gini = 0.0\nsamples = 1\nvalue = [0, 1]"] ;
386 -> 387 ;
388 [label="html_ratio <= 0.253\ngini = 0.5\nsamples = 2\nvalue = [1, 1]"] ;
386 -> 388 ;
389 [label="gini = 0.0\nsamples = 1\nvalue = [1, 0]"] ;
388 -> 389 ;
390 [label="gini = 0.0\nsamples = 1\nvalue = [0, 1]"] ;
388 -> 390 ;
391 [label="gini = 0.0\nsamples = 2\nvalue = [2, 0]"] ;
385 -> 391 ;
392 [label="gini = 0.0\nsamples = 2\nvalue = [0, 2]"] ;
384 -> 392 ;
393 [label="html_ratio <= 0.255\ngini = 0.245\nsamples = 7\nvalue = [6, 1]"] ;
383 -> 393 ;
394 [label="gini = 0.0\nsamples = 4\nvalue = [4, 0]"] ;
393 -> 394 ;
395 [label="html_ratio <= 0.255\ngini = 0.444\nsamples = 3\nvalue = [2, 1]"] ;
393 -> 395 ;
396 [label="gini = 0.0\nsamples = 1\nvalue = [0, 1]"] ;
395 -> 396 ;
397 [label="gini = 0.0\nsamples = 2\nvalue = [2, 0]"] ;
395 -> 397 ;
398 [label="gini = 0.0\nsamples = 2\nvalue = [0, 2]"] ;
382 -> 398 ;
399 [label="gini = 0.0\nsamples = 3\nvalue = [3, 0]"] ;
381 -> 399 ;
400 [label="html_ratio <= 0.259\ngini = 0.444\nsamples = 21\nvalue = [7, 14]"] ;
60 -> 400 ;
401 [label="html_ratio <= 0.258\ngini = 0.32\nsamples = 15\nvalue = [3, 12]"] ;
400 -> 401 ;
402 [label="html_ratio <= 0.258\ngini = 0.42\nsamples = 10\nvalue = [3, 7]"] ;
401 -> 402 ;
403 [label="html_ratio <= 0.257\ngini = 0.245\nsamples = 7\nvalue = [1, 6]"] ;
402 -> 403 ;
404 [label="gini = 0.0\nsamples = 3\nvalue = [0, 3]"] ;
403 -> 404 ;
405 [label="html_ratio <= 0.257\ngini = 0.375\nsamples = 4\nvalue = [1, 3]"] ;
403 -> 405 ;
406 [label="gini = 0.0\nsamples = 1\nvalue = [1, 0]"] ;
405 -> 406 ;
407 [label="gini = 0.0\nsamples = 3\nvalue = [0, 3]"] ;
405 -> 407 ;
408 [label="html_ratio <= 0.258\ngini = 0.444\nsamples = 3\nvalue = [2, 1]"] ;
402 -> 408 ;
409 [label="gini = 0.0\nsamples = 1\nvalue = [1, 0]"] ;
408 -> 409 ;
410 [label="html_ratio <= 0.258\ngini = 0.5\nsamples = 2\nvalue = [1, 1]"] ;
408 -> 410 ;
411 [label="gini = 0.0\nsamples = 1\nvalue = [0, 1]"] ;
410 -> 411 ;
412 [label="gini = 0.0\nsamples = 1\nvalue = [1, 0]"] ;
410 -> 412 ;
413 [label="gini = 0.0\nsamples = 5\nvalue = [0, 5]"] ;
401 -> 413 ;
414 [label="html_ratio <= 0.259\ngini = 0.444\nsamples = 6\nvalue = [4, 2]"] ;
400 -> 414 ;
415 [label="gini = 0.0\nsamples = 4\nvalue = [4, 0]"] ;
414 -> 415 ;
416 [label="gini = 0.0\nsamples = 2\nvalue = [0, 2]"] ;
414 -> 416 ;
417 [label="html_ratio <= 0.261\ngini = 0.32\nsamples = 20\nvalue = [16, 4]"] ;
59 -> 417 ;
418 [label="gini = 0.0\nsamples = 3\nvalue = [3, 0]"] ;
417 -> 418 ;
419 [label="html_ratio <= 0.261\ngini = 0.36\nsamples = 17\nvalue = [13, 4]"] ;
417 -> 419 ;
420 [label="gini = 0.0\nsamples = 1\nvalue = [0, 1]"] ;
419 -> 420 ;
421 [label="html_ratio <= 0.263\ngini = 0.305\nsamples = 16\nvalue = [13, 3]"] ;
419 -> 421 ;
422 [label="gini = 0.0\nsamples = 5\nvalue = [5, 0]"] ;
421 -> 422 ;
423 [label="html_ratio <= 0.263\ngini = 0.397\nsamples = 11\nvalue = [8, 3]"] ;
421 -> 423 ;
424 [label="gini = 0.0\nsamples = 1\nvalue = [0, 1]"] ;
423 -> 424 ;
425 [label="html_ratio <= 0.265\ngini = 0.32\nsamples = 10\nvalue = [8, 2]"] ;
423 -> 425 ;
426 [label="html_ratio <= 0.265\ngini = 0.408\nsamples = 7\nvalue = [5, 2]"] ;
425 -> 426 ;
427 [label="html_ratio <= 0.264\ngini = 0.278\nsamples = 6\nvalue = [5, 1]"] ;
426 -> 427 ;
428 [label="html_ratio <= 0.263\ngini = 0.444\nsamples = 3\nvalue = [2, 1]"] ;
427 -> 428 ;
429 [label="gini = 0.0\nsamples = 2\nvalue = [2, 0]"] ;
428 -> 429 ;
430 [label="gini = 0.0\nsamples = 1\nvalue = [0, 1]"] ;
428 -> 430 ;
431 [label="gini = 0.0\nsamples = 3\nvalue = [3, 0]"] ;
427 -> 431 ;
432 [label="gini = 0.0\nsamples = 1\nvalue = [0, 1]"] ;
426 -> 432 ;
433 [label="gini = 0.0\nsamples = 3\nvalue = [3, 0]"] ;
425 -> 433 ;
434 [label="html_ratio <= 0.27\ngini = 0.5\nsamples = 198\nvalue = [101, 97]"] ;
58 -> 434 ;
435 [label="html_ratio <= 0.269\ngini = 0.458\nsamples = 31\nvalue = [11, 20]"] ;
434 -> 435 ;
436 [label="html_ratio <= 0.268\ngini = 0.493\nsamples = 25\nvalue = [11, 14]"] ;
435 -> 436 ;
437 [label="html_ratio <= 0.268\ngini = 0.476\nsamples = 23\nvalue = [9, 14]"] ;
436 -> 437 ;
438 [label="html_ratio <= 0.266\ngini = 0.499\nsamples = 19\nvalue = [9, 10]"] ;
437 -> 438 ;
439 [label="gini = 0.0\nsamples = 3\nvalue = [0, 3]"] ;
438 -> 439 ;
440 [label="html_ratio <= 0.266\ngini = 0.492\nsamples = 16\nvalue = [9, 7]"] ;
438 -> 440 ;
441 [label="gini = 0.0\nsamples = 2\nvalue = [2, 0]"] ;
440 -> 441 ;
442 [label="html_ratio <= 0.267\ngini = 0.5\nsamples = 14\nvalue = [7, 7]"] ;
440 -> 442 ;
443 [label="html_ratio <= 0.267\ngini = 0.486\nsamples = 12\nvalue = [5, 7]"] ;
442 -> 443 ;
444 [label="html_ratio <= 0.266\ngini = 0.5\nsamples = 10\nvalue = [5, 5]"] ;
443 -> 444 ;
445 [label="gini = 0.0\nsamples = 1\nvalue = [0, 1]"] ;
444 -> 445 ;
446 [label="html_ratio <= 0.266\ngini = 0.494\nsamples = 9\nvalue = [5, 4]"] ;
444 -> 446 ;
447 [label="gini = 0.0\nsamples = 2\nvalue = [2, 0]"] ;
446 -> 447 ;
448 [label="html_ratio <= 0.267\ngini = 0.49\nsamples = 7\nvalue = [3, 4]"] ;
446 -> 448 ;
449 [label="html_ratio <= 0.267\ngini = 0.444\nsamples = 6\nvalue = [2, 4]"] ;
448 -> 449 ;
450 [label="html_ratio <= 0.267\ngini = 0.5\nsamples = 4\nvalue = [2, 2]"] ;
449 -> 450 ;
451 [label="gini = 0.0\nsamples = 1\nvalue = [0, 1]"] ;
450 -> 451 ;
452 [label="html_ratio <= 0.267\ngini = 0.444\nsamples = 3\nvalue = [2, 1]"] ;
450 -> 452 ;
453 [label="gini = 0.0\nsamples = 1\nvalue = [1, 0]"] ;
452 -> 453 ;
454 [label="html_ratio <= 0.267\ngini = 0.5\nsamples = 2\nvalue = [1, 1]"] ;
452 -> 454 ;
455 [label="gini = 0.0\nsamples = 1\nvalue = [0, 1]"] ;
454 -> 455 ;
456 [label="gini = 0.0\nsamples = 1\nvalue = [1, 0]"] ;
454 -> 456 ;
457 [label="gini = 0.0\nsamples = 2\nvalue = [0, 2]"] ;
449 -> 457 ;
458 [label="gini = 0.0\nsamples = 1\nvalue = [1, 0]"] ;
448 -> 458 ;
459 [label="gini = 0.0\nsamples = 2\nvalue = [0, 2]"] ;
443 -> 459 ;
460 [label="gini = 0.0\nsamples = 2\nvalue = [2, 0]"] ;
442 -> 460 ;
461 [label="gini = 0.0\nsamples = 4\nvalue = [0, 4]"] ;
437 -> 461 ;
462 [label="gini = 0.0\nsamples = 2\nvalue = [2, 0]"] ;
436 -> 462 ;
463 [label="gini = 0.0\nsamples = 6\nvalue = [0, 6]"] ;
435 -> 463 ;
464 [label="html_ratio <= 0.27\ngini = 0.497\nsamples = 167\nvalue = [90, 77]"] ;
434 -> 464 ;
465 [label="gini = 0.0\nsamples = 3\nvalue = [3, 0]"] ;
464 -> 465 ;
466 [label="html_ratio <= 0.329\ngini = 0.498\nsamples = 164\nvalue = [87, 77]"] ;
464 -> 466 ;
467 [label="html_ratio <= 0.27\ngini = 0.497\nsamples = 162\nvalue = [87, 75]"] ;
466 -> 467 ;
468 [label="html_ratio <= 0.27\ngini = 0.32\nsamples = 5\nvalue = [1, 4]"] ;
467 -> 468 ;
469 [label="html_ratio <= 0.27\ngini = 0.5\nsamples = 2\nvalue = [1, 1]"] ;
468 -> 469 ;
470 [label="gini = 0.0\nsamples = 1\nvalue = [0, 1]"] ;
469 -> 470 ;
471 [label="gini = 0.0\nsamples = 1\nvalue = [1, 0]"] ;
469 -> 471 ;
472 [label="gini = 0.0\nsamples = 3\nvalue = [0, 3]"] ;
468 -> 472 ;
473 [label="html_ratio <= 0.271\ngini = 0.495\nsamples = 157\nvalue = [86, 71]"] ;
467 -> 473 ;
474 [label="gini = 0.0\nsamples = 3\nvalue = [3, 0]"] ;
473 -> 474 ;
475 [label="html_ratio <= 0.293\ngini = 0.497\nsamples = 154\nvalue = [83, 71]"] ;
473 -> 475 ;
476 [label="html_ratio <= 0.289\ngini = 0.489\nsamples = 94\nvalue = [54, 40]"] ;
475 -> 476 ;
477 [label="html_ratio <= 0.288\ngini = 0.495\nsamples = 89\nvalue = [49, 40]"] ;
476 -> 477 ;
478 [label="html_ratio <= 0.283\ngini = 0.49\nsamples = 86\nvalue = [49, 37]"] ;
477 -> 478 ;
479 [label="html_ratio <= 0.281\ngini = 0.499\nsamples = 74\nvalue = [39, 35]"] ;
478 -> 479 ;
480 [label="html_ratio <= 0.271\ngini = 0.494\nsamples = 63\nvalue = [35, 28]"] ;
479 -> 480 ;
481 [label="gini = 0.0\nsamples = 1\nvalue = [0, 1]"] ;
480 -> 481 ;
482 [label="html_ratio <= 0.271\ngini = 0.492\nsamples = 62\nvalue = [35, 27]"] ;
480 -> 482 ;
483 [label="gini = 0.0\nsamples = 2\nvalue = [2, 0]"] ;
482 -> 483 ;
484 [label="html_ratio <= 0.273\ngini = 0.495\nsamples = 60\nvalue = [33, 27]"] ;
482 -> 484 ;
485 [label="html_ratio <= 0.273\ngini = 0.497\nsamples = 26\nvalue = [12, 14]"] ;
484 -> 485 ;
486 [label="html_ratio <= 0.273\ngini = 0.5\nsamples = 24\nvalue = [12, 12]"] ;
485 -> 486 ;
487 [label="html_ratio <= 0.272\ngini = 0.495\nsamples = 20\nvalue = [9, 11]"] ;
486 -> 487 ;
488 [label="html_ratio <= 0.272\ngini = 0.498\nsamples = 15\nvalue = [8, 7]"] ;
487 -> 488 ;
489 [label="html_ratio <= 0.272\ngini = 0.497\nsamples = 13\nvalue = [6, 7]"] ;
488 -> 489 ;
490 [label="html_ratio <= 0.271\ngini = 0.496\nsamples = 11\nvalue = [6, 5]"] ;
489 -> 490 ;
491 [label="gini = 0.0\nsamples = 1\nvalue = [0, 1]"] ;
490 -> 491 ;
492 [label="html_ratio <= 0.271\ngini = 0.48\nsamples = 10\nvalue = [6, 4]"] ;
490 -> 492 ;
493 [label="html_ratio <= 0.271\ngini = 0.32\nsamples = 5\nvalue = [4, 1]"] ;
492 -> 493 ;
494 [label="gini = 0.0\nsamples = 2\nvalue = [2, 0]"] ;
493 -> 494 ;
495 [label="html_ratio <= 0.271\ngini = 0.444\nsamples = 3\nvalue = [2, 1]"] ;
493 -> 495 ;
496 [label="gini = 0.0\nsamples = 1\nvalue = [0, 1]"] ;
495 -> 496 ;
497 [label="gini = 0.0\nsamples = 2\nvalue = [2, 0]"] ;
495 -> 497 ;
498 [label="html_ratio <= 0.271\ngini = 0.48\nsamples = 5\nvalue = [2, 3]"] ;
492 -> 498 ;
499 [label="gini = 0.0\nsamples = 2\nvalue = [0, 2]"] ;
498 -> 499 ;
500 [label="html_ratio <= 0.271\ngini = 0.444\nsamples = 3\nvalue = [2, 1]"] ;
498 -> 500 ;
501 [label="gini = 0.0\nsamples = 1\nvalue = [1, 0]"] ;
500 -> 501 ;
502 [label="html_ratio <= 0.271\ngini = 0.5\nsamples = 2\nvalue = [1, 1]"] ;
500 -> 502 ;
503 [label="gini = 0.0\nsamples = 1\nvalue = [0, 1]"] ;
502 -> 503 ;
504 [label="gini = 0.0\nsamples = 1\nvalue = [1, 0]"] ;
502 -> 504 ;
505 [label="gini = 0.0\nsamples = 2\nvalue = [0, 2]"] ;
489 -> 505 ;
506 [label="gini = 0.0\nsamples = 2\nvalue = [2, 0]"] ;
488 -> 506 ;
507 [label="html_ratio <= 0.272\ngini = 0.32\nsamples = 5\nvalue = [1, 4]"] ;
487 -> 507 ;
508 [label="gini = 0.0\nsamples = 3\nvalue = [0, 3]"] ;
507 -> 508 ;
509 [label="html_ratio <= 0.272\ngini = 0.5\nsamples = 2\nvalue = [1, 1]"] ;
507 -> 509 ;
510 [label="gini = 0.0\nsamples = 1\nvalue = [1, 0]"] ;
509 -> 510 ;
511 [label="gini = 0.0\nsamples = 1\nvalue = [0, 1]"] ;
509 -> 511 ;
512 [label="html_ratio <= 0.273\ngini = 0.375\nsamples = 4\nvalue = [3, 1]"] ;
486 -> 512 ;
513 [label="gini = 0.0\nsamples = 2\nvalue = [2, 0]"] ;
512 -> 513 ;
514 [label="html_ratio <= 0.273\ngini = 0.5\nsamples = 2\nvalue = [1, 1]"] ;
512 -> 514 ;
515 [label="gini = 0.0\nsamples = 1\nvalue = [0, 1]"] ;
514 -> 515 ;
516 [label="gini = 0.0\nsamples = 1\nvalue = [1, 0]"] ;
514 -> 516 ;
517 [label="gini = 0.0\nsamples = 2\nvalue = [0, 2]"] ;
485 -> 517 ;
518 [label="html_ratio <= 0.274\ngini = 0.472\nsamples = 34\nvalue = [21, 13]"] ;
484 -> 518 ;
519 [label="gini = 0.0\nsamples = 4\nvalue = [4, 0]"] ;
518 -> 519 ;
520 [label="html_ratio <= 0.275\ngini = 0.491\nsamples = 30\nvalue = [17, 13]"] ;
518 -> 520 ;
521 [label="html_ratio <= 0.274\ngini = 0.32\nsamples = 5\nvalue = [1, 4]"] ;
520 -> 521 ;
522 [label="gini = 0.0\nsamples = 2\nvalue = [0, 2]"] ;
521 -> 522 ;
523 [label="html_ratio <= 0.274\ngini = 0.444\nsamples = 3\nvalue = [1, 2]"] ;
521 -> 523 ;
524 [label="gini = 0.0\nsamples = 1\nvalue = [1, 0]"] ;
523 -> 524 ;
525 [label="gini = 0.0\nsamples = 2\nvalue = [0, 2]"] ;
523 -> 525 ;
526 [label="html_ratio <= 0.275\ngini = 0.461\nsamples = 25\nvalue = [16, 9]"] ;
520 -> 526 ;
527 [label="gini = 0.0\nsamples = 2\nvalue = [2, 0]"] ;
526 -> 527 ;
528 [label="html_ratio <= 0.275\ngini = 0.476\nsamples = 23\nvalue = [14, 9]"] ;
526 -> 528 ;
529 [label="gini = 0.0\nsamples = 1\nvalue = [0, 1]"] ;
528 -> 529 ;
530 [label="html_ratio <= 0.275\ngini = 0.463\nsamples = 22\nvalue = [14, 8]"] ;
528 -> 530 ;
531 [label="gini = 0.0\nsamples = 2\nvalue = [2, 0]"] ;
530 -> 531 ;
532 [label="html_ratio <= 0.276\ngini = 0.48\nsamples = 20\nvalue = [12, 8]"] ;
530 -> 532 ;
533 [label="gini = 0.0\nsamples = 2\nvalue = [0, 2]"] ;
532 -> 533 ;
534 [label="html_ratio <= 0.276\ngini = 0.444\nsamples = 18\nvalue = [12, 6]"] ;
532 -> 534 ;
535 [label="gini = 0.0\nsamples = 2\nvalue = [2, 0]"] ;
534 -> 535 ;
536 [label="html_ratio <= 0.276\ngini = 0.469\nsamples = 16\nvalue = [10, 6]"] ;
534 -> 536 ;
537 [label="gini = 0.0\nsamples = 1\nvalue = [0, 1]"] ;
536 -> 537 ;
538 [label="html_ratio <= 0.277\ngini = 0.444\nsamples = 15\nvalue = [10, 5]"] ;
536 -> 538 ;
539 [label="gini = 0.0\nsamples = 2\nvalue = [2, 0]"] ;
538 -> 539 ;
540 [label="html_ratio <= 0.277\ngini = 0.473\nsamples = 13\nvalue = [8, 5]"] ;
538 -> 540 ;
541 [label="gini = 0.0\nsamples = 1\nvalue = [0, 1]"] ;
540 -> 541 ;
542 [label="html_ratio <= 0.278\ngini = 0.444\nsamples = 12\nvalue = [8, 4]"] ;
540 -> 542 ;
543 [label="html_ratio <= 0.277\ngini = 0.32\nsamples = 5\nvalue = [4, 1]"] ;
542 -> 543 ;
544 [label="html_ratio <= 0.277\ngini = 0.5\nsamples = 2\nvalue = [1, 1]"] ;
543 -> 544 ;
545 [label="gini = 0.0\nsamples = 1\nvalue = [1, 0]"] ;
544 -> 545 ;
546 [label="gini = 0.0\nsamples = 1\nvalue = [0, 1]"] ;
544 -> 546 ;
547 [label="gini = 0.0\nsamples = 3\nvalue = [3, 0]"] ;
543 -> 547 ;
548 [label="html_ratio <= 0.278\ngini = 0.49\nsamples = 7\nvalue = [4, 3]"] ;
542 -> 548 ;
549 [label="gini = 0.0\nsamples = 1\nvalue = [0, 1]"] ;
548 -> 549 ;
550 [label="html_ratio <= 0.279\ngini = 0.444\nsamples = 6\nvalue = [4, 2]"] ;
548 -> 550 ;
551 [label="gini = 0.0\nsamples = 1\nvalue = [1, 0]"] ;
550 -> 551 ;
552 [label="html_ratio <= 0.279\ngini = 0.48\nsamples = 5\nvalue = [3, 2]"] ;
550 -> 552 ;
553 [label="gini = 0.0\nsamples = 1\nvalue = [0, 1]"] ;
552 -> 553 ;
554 [label="html_ratio <= 0.28\ngini = 0.375\nsamples = 4\nvalue = [3, 1]"] ;
552 -> 554 ;
555 [label="gini = 0.0\nsamples = 2\nvalue = [2, 0]"] ;
554 -> 555 ;
556 [label="html_ratio <= 0.281\ngini = 0.5\nsamples = 2\nvalue = [1, 1]"] ;
554 -> 556 ;
557 [label="gini = 0.0\nsamples = 1\nvalue = [0, 1]"] ;
556 -> 557 ;
558 [label="gini = 0.0\nsamples = 1\nvalue = [1, 0]"] ;
556 -> 558 ;
559 [label="html_ratio <= 0.281\ngini = 0.463\nsamples = 11\nvalue = [4, 7]"] ;
479 -> 559 ;
560 [label="gini = 0.0\nsamples = 2\nvalue = [0, 2]"] ;
559 -> 560 ;
561 [label="html_ratio <= 0.282\ngini = 0.494\nsamples = 9\nvalue = [4, 5]"] ;
559 -> 561 ;
562 [label="gini = 0.0\nsamples = 1\nvalue = [1, 0]"] ;
561 -> 562 ;
563 [label="html_ratio <= 0.282\ngini = 0.469\nsamples = 8\nvalue = [3, 5]"] ;
561 -> 563 ;
564 [label="gini = 0.0\nsamples = 2\nvalue = [0, 2]"] ;
563 -> 564 ;
565 [label="html_ratio <= 0.283\ngini = 0.5\nsamples = 6\nvalue = [3, 3]"] ;
563 -> 565 ;
566 [label="gini = 0.0\nsamples = 2\nvalue = [2, 0]"] ;
565 -> 566 ;
567 [label="html_ratio <= 0.283\ngini = 0.375\nsamples = 4\nvalue = [1, 3]"] ;
565 -> 567 ;
568 [label="gini = 0.0\nsamples = 2\nvalue = [0, 2]"] ;
567 -> 568 ;
569 [label="html_ratio <= 0.283\ngini = 0.5\nsamples = 2\nvalue = [1, 1]"] ;
567 -> 569 ;
570 [label="gini = 0.0\nsamples = 1\nvalue = [1, 0]"] ;
569 -> 570 ;
571 [label="gini = 0.0\nsamples = 1\nvalue = [0, 1]"] ;
569 -> 571 ;
572 [label="image_ratio <= -0.5\ngini = 0.278\nsamples = 12\nvalue = [10, 2]"] ;
478 -> 572 ;
573 [label="html_ratio <= 0.288\ngini = 0.165\nsamples = 11\nvalue = [10, 1]"] ;
572 -> 573 ;
574 [label="gini = 0.0\nsamples = 8\nvalue = [8, 0]"] ;
573 -> 574 ;
575 [label="html_ratio <= 0.288\ngini = 0.444\nsamples = 3\nvalue = [2, 1]"] ;
573 -> 575 ;
576 [label="gini = 0.0\nsamples = 1\nvalue = [0, 1]"] ;
575 -> 576 ;
577 [label="gini = 0.0\nsamples = 2\nvalue = [2, 0]"] ;
575 -> 577 ;
578 [label="gini = 0.0\nsamples = 1\nvalue = [0, 1]"] ;
572 -> 578 ;
579 [label="gini = 0.0\nsamples = 3\nvalue = [0, 3]"] ;
477 -> 579 ;
580 [label="gini = 0.0\nsamples = 5\nvalue = [5, 0]"] ;
476 -> 580 ;
581 [label="html_ratio <= 0.296\ngini = 0.499\nsamples = 60\nvalue = [29, 31]"] ;
475 -> 581 ;
582 [label="image_ratio <= -0.5\ngini = 0.32\nsamples = 10\nvalue = [2, 8]"] ;
581 -> 582 ;
583 [label="html_ratio <= 0.295\ngini = 0.198\nsamples = 9\nvalue = [1, 8]"] ;
582 -> 583 ;
584 [label="html_ratio <= 0.295\ngini = 0.375\nsamples = 4\nvalue = [1, 3]"] ;
583 -> 584 ;
585 [label="gini = 0.0\nsamples = 3\nvalue = [0, 3]"] ;
584 -> 585 ;
586 [label="gini = 0.0\nsamples = 1\nvalue = [1, 0]"] ;
584 -> 586 ;
587 [label="gini = 0.0\nsamples = 5\nvalue = [0, 5]"] ;
583 -> 587 ;
588 [label="gini = 0.0\nsamples = 1\nvalue = [1, 0]"] ;
582 -> 588 ;
589 [label="html_ratio <= 0.297\ngini = 0.497\nsamples = 50\nvalue = [27, 23]"] ;
581 -> 589 ;
590 [label="gini = 0.0\nsamples = 2\nvalue = [2, 0]"] ;
589 -> 590 ;
591 [label="html_ratio <= 0.3\ngini = 0.499\nsamples = 48\nvalue = [25, 23]"] ;
589 -> 591 ;
592 [label="gini = 0.0\nsamples = 3\nvalue = [0, 3]"] ;
591 -> 592 ;
593 [label="html_ratio <= 0.301\ngini = 0.494\nsamples = 45\nvalue = [25, 20]"] ;
591 -> 593 ;
594 [label="gini = 0.0\nsamples = 3\nvalue = [3, 0]"] ;
593 -> 594 ;
595 [label="html_ratio <= 0.302\ngini = 0.499\nsamples = 42\nvalue = [22, 20]"] ;
593 -> 595 ;
596 [label="gini = 0.0\nsamples = 1\nvalue = [0, 1]"] ;
595 -> 596 ;
597 [label="html_ratio <= 0.302\ngini = 0.497\nsamples = 41\nvalue = [22, 19]"] ;
595 -> 597 ;
598 [label="gini = 0.0\nsamples = 2\nvalue = [2, 0]"] ;
597 -> 598 ;
599 [label="html_ratio <= 0.303\ngini = 0.5\nsamples = 39\nvalue = [20, 19]"] ;
597 -> 599 ;
600 [label="gini = 0.0\nsamples = 2\nvalue = [0, 2]"] ;
599 -> 600 ;
601 [label="html_ratio <= 0.323\ngini = 0.497\nsamples = 37\nvalue = [20, 17]"] ;
599 -> 601 ;
602 [label="html_ratio <= 0.32\ngini = 0.485\nsamples = 29\nvalue = [17, 12]"] ;
601 -> 602 ;
603 [label="image_ratio <= -0.5\ngini = 0.497\nsamples = 26\nvalue = [14, 12]"] ;
602 -> 603 ;
604 [label="html_ratio <= 0.318\ngini = 0.486\nsamples = 24\nvalue = [14, 10]"] ;
603 -> 604 ;
605 [label="html_ratio <= 0.308\ngini = 0.476\nsamples = 23\nvalue = [14, 9]"] ;
604 -> 605 ;
606 [label="html_ratio <= 0.304\ngini = 0.494\nsamples = 9\nvalue = [4, 5]"] ;
605 -> 606 ;
607 [label="html_ratio <= 0.303\ngini = 0.375\nsamples = 4\nvalue = [3, 1]"] ;
606 -> 607 ;
608 [label="html_ratio <= 0.303\ngini = 0.5\nsamples = 2\nvalue = [1, 1]"] ;
607 -> 608 ;
609 [label="gini = 0.0\nsamples = 1\nvalue = [1, 0]"] ;
608 -> 609 ;
610 [label="gini = 0.0\nsamples = 1\nvalue = [0, 1]"] ;
608 -> 610 ;
611 [label="gini = 0.0\nsamples = 2\nvalue = [2, 0]"] ;
607 -> 611 ;
612 [label="html_ratio <= 0.307\ngini = 0.32\nsamples = 5\nvalue = [1, 4]"] ;
606 -> 612 ;
613 [label="gini = 0.0\nsamples = 3\nvalue = [0, 3]"] ;
612 -> 613 ;
614 [label="html_ratio <= 0.307\ngini = 0.5\nsamples = 2\nvalue = [1, 1]"] ;
612 -> 614 ;
615 [label="gini = 0.0\nsamples = 1\nvalue = [1, 0]"] ;
614 -> 615 ;
616 [label="gini = 0.0\nsamples = 1\nvalue = [0, 1]"] ;
614 -> 616 ;
617 [label="html_ratio <= 0.315\ngini = 0.408\nsamples = 14\nvalue = [10, 4]"] ;
605 -> 617 ;
618 [label="html_ratio <= 0.31\ngini = 0.219\nsamples = 8\nvalue = [7, 1]"] ;
617 -> 618 ;
619 [label="html_ratio <= 0.309\ngini = 0.375\nsamples = 4\nvalue = [3, 1]"] ;
618 -> 619 ;
620 [label="gini = 0.0\nsamples = 3\nvalue = [3, 0]"] ;
619 -> 620 ;
621 [label="gini = 0.0\nsamples = 1\nvalue = [0, 1]"] ;
619 -> 621 ;
622 [label="gini = 0.0\nsamples = 4\nvalue = [4, 0]"] ;
618 -> 622 ;
623 [label="html_ratio <= 0.315\ngini = 0.5\nsamples = 6\nvalue = [3, 3]"] ;
617 -> 623 ;
624 [label="gini = 0.0\nsamples = 2\nvalue = [0, 2]"] ;
623 -> 624 ;
625 [label="html_ratio <= 0.317\ngini = 0.375\nsamples = 4\nvalue = [3, 1]"] ;
623 -> 625 ;
626 [label="gini = 0.0\nsamples = 2\nvalue = [2, 0]"] ;
625 -> 626 ;
627 [label="html_ratio <= 0.318\ngini = 0.5\nsamples = 2\nvalue = [1, 1]"] ;
625 -> 627 ;
628 [label="gini = 0.0\nsamples = 1\nvalue = [0, 1]"] ;
627 -> 628 ;
629 [label="gini = 0.0\nsamples = 1\nvalue = [1, 0]"] ;
627 -> 629 ;
630 [label="gini = 0.0\nsamples = 1\nvalue = [0, 1]"] ;
604 -> 630 ;
631 [label="gini = 0.0\nsamples = 2\nvalue = [0, 2]"] ;
603 -> 631 ;
632 [label="gini = 0.0\nsamples = 3\nvalue = [3, 0]"] ;
602 -> 632 ;
633 [label="html_ratio <= 0.329\ngini = 0.469\nsamples = 8\nvalue = [3, 5]"] ;
601 -> 633 ;
634 [label="html_ratio <= 0.324\ngini = 0.408\nsamples = 7\nvalue = [2, 5]"] ;
633 -> 634 ;
635 [label="gini = 0.0\nsamples = 2\nvalue = [0, 2]"] ;
634 -> 635 ;
636 [label="html_ratio <= 0.327\ngini = 0.48\nsamples = 5\nvalue = [2, 3]"] ;
634 -> 636 ;
637 [label="image_ratio <= -0.5\ngini = 0.444\nsamples = 3\nvalue = [2, 1]"] ;
636 -> 637 ;
638 [label="gini = 0.0\nsamples = 2\nvalue = [2, 0]"] ;
637 -> 638 ;
639 [label="gini = 0.0\nsamples = 1\nvalue = [0, 1]"] ;
637 -> 639 ;
640 [label="gini = 0.0\nsamples = 2\nvalue = [0, 2]"] ;
636 -> 640 ;
641 [label="gini = 0.0\nsamples = 1\nvalue = [1, 0]"] ;
633 -> 641 ;
642 [label="gini = 0.0\nsamples = 2\nvalue = [0, 2]"] ;
466 -> 642 ;
643 [label="html_ratio <= 0.377\ngini = 0.462\nsamples = 83\nvalue = [53, 30]"] ;
57 -> 643 ;
644 [label="html_ratio <= 0.366\ngini = 0.375\nsamples = 24\nvalue = [18, 6]"] ;
643 -> 644 ;
645 [label="html_ratio <= 0.365\ngini = 0.432\nsamples = 19\nvalue = [13, 6]"] ;
644 -> 645 ;
646 [label="html_ratio <= 0.355\ngini = 0.401\nsamples = 18\nvalue = [13, 5]"] ;
645 -> 646 ;
647 [label="html_ratio <= 0.35\ngini = 0.459\nsamples = 14\nvalue = [9, 5]"] ;
646 -> 647 ;
648 [label="html_ratio <= 0.336\ngini = 0.375\nsamples = 12\nvalue = [9, 3]"] ;
647 -> 648 ;
649 [label="html_ratio <= 0.333\ngini = 0.48\nsamples = 5\nvalue = [3, 2]"] ;
648 -> 649 ;
650 [label="gini = 0.0\nsamples = 2\nvalue = [2, 0]"] ;
649 -> 650 ;
651 [label="html_ratio <= 0.334\ngini = 0.444\nsamples = 3\nvalue = [1, 2]"] ;
649 -> 651 ;
652 [label="gini = 0.0\nsamples = 1\nvalue = [0, 1]"] ;
651 -> 652 ;
653 [label="html_ratio <= 0.335\ngini = 0.5\nsamples = 2\nvalue = [1, 1]"] ;
651 -> 653 ;
654 [label="gini = 0.0\nsamples = 1\nvalue = [1, 0]"] ;
653 -> 654 ;
655 [label="gini = 0.0\nsamples = 1\nvalue = [0, 1]"] ;
653 -> 655 ;
656 [label="html_ratio <= 0.342\ngini = 0.245\nsamples = 7\nvalue = [6, 1]"] ;
648 -> 656 ;
657 [label="gini = 0.0\nsamples = 5\nvalue = [5, 0]"] ;
656 -> 657 ;
658 [label="html_ratio <= 0.346\ngini = 0.5\nsamples = 2\nvalue = [1, 1]"] ;
656 -> 658 ;
659 [label="gini = 0.0\nsamples = 1\nvalue = [0, 1]"] ;
658 -> 659 ;
660 [label="gini = 0.0\nsamples = 1\nvalue = [1, 0]"] ;
658 -> 660 ;
661 [label="gini = 0.0\nsamples = 2\nvalue = [0, 2]"] ;
647 -> 661 ;
662 [label="gini = 0.0\nsamples = 4\nvalue = [4, 0]"] ;
646 -> 662 ;
663 [label="gini = 0.0\nsamples = 1\nvalue = [0, 1]"] ;
645 -> 663 ;
664 [label="gini = 0.0\nsamples = 5\nvalue = [5, 0]"] ;
644 -> 664 ;
665 [label="html_ratio <= 0.402\ngini = 0.483\nsamples = 59\nvalue = [35, 24]"] ;
643 -> 665 ;
666 [label="image_ratio <= -0.5\ngini = 0.459\nsamples = 14\nvalue = [5, 9]"] ;
665 -> 666 ;
667 [label="html_ratio <= 0.384\ngini = 0.469\nsamples = 8\nvalue = [5, 3]"] ;
666 -> 667 ;
668 [label="gini = 0.0\nsamples = 4\nvalue = [4, 0]"] ;
667 -> 668 ;
669 [label="html_ratio <= 0.391\ngini = 0.375\nsamples = 4\nvalue = [1, 3]"] ;
667 -> 669 ;
670 [label="html_ratio <= 0.387\ngini = 0.5\nsamples = 2\nvalue = [1, 1]"] ;
669 -> 670 ;
671 [label="gini = 0.0\nsamples = 1\nvalue = [0, 1]"] ;
670 -> 671 ;
672 [label="gini = 0.0\nsamples = 1\nvalue = [1, 0]"] ;
670 -> 672 ;
673 [label="gini = 0.0\nsamples = 2\nvalue = [0, 2]"] ;
669 -> 673 ;
674 [label="gini = 0.0\nsamples = 6\nvalue = [0, 6]"] ;
666 -> 674 ;
675 [label="html_ratio <= 0.447\ngini = 0.444\nsamples = 45\nvalue = [30, 15]"] ;
665 -> 675 ;
676 [label="html_ratio <= 0.409\ngini = 0.278\nsamples = 18\nvalue = [15, 3]"] ;
675 -> 676 ;
677 [label="gini = 0.0\nsamples = 5\nvalue = [5, 0]"] ;
676 -> 677 ;
678 [label="html_ratio <= 0.41\ngini = 0.355\nsamples = 13\nvalue = [10, 3]"] ;
676 -> 678 ;
679 [label="gini = 0.0\nsamples = 1\nvalue = [0, 1]"] ;
678 -> 679 ;
680 [label="html_ratio <= 0.44\ngini = 0.278\nsamples = 12\nvalue = [10, 2]"] ;
678 -> 680 ;
681 [label="html_ratio <= 0.437\ngini = 0.375\nsamples = 8\nvalue = [6, 2]"] ;
680 -> 681 ;
682 [label="html_ratio <= 0.42\ngini = 0.245\nsamples = 7\nvalue = [6, 1]"] ;
681 -> 682 ;
683 [label="gini = 0.0\nsamples = 3\nvalue = [3, 0]"] ;
682 -> 683 ;
684 [label="html_ratio <= 0.424\ngini = 0.375\nsamples = 4\nvalue = [3, 1]"] ;
682 -> 684 ;
685 [label="gini = 0.0\nsamples = 1\nvalue = [0, 1]"] ;
684 -> 685 ;
686 [label="gini = 0.0\nsamples = 3\nvalue = [3, 0]"] ;
684 -> 686 ;
687 [label="gini = 0.0\nsamples = 1\nvalue = [0, 1]"] ;
681 -> 687 ;
688 [label="gini = 0.0\nsamples = 4\nvalue = [4, 0]"] ;
680 -> 688 ;
689 [label="html_ratio <= 0.626\ngini = 0.494\nsamples = 27\nvalue = [15, 12]"] ;
675 -> 689 ;
690 [label="html_ratio <= 0.51\ngini = 0.499\nsamples = 25\nvalue = [13, 12]"] ;
689 -> 690 ;
691 [label="html_ratio <= 0.482\ngini = 0.49\nsamples = 21\nvalue = [12, 9]"] ;
690 -> 691 ;
692 [label="image_ratio <= -0.5\ngini = 0.498\nsamples = 15\nvalue = [7, 8]"] ;
691 -> 692 ;
693 [label="html_ratio <= 0.478\ngini = 0.444\nsamples = 12\nvalue = [4, 8]"] ;
692 -> 693 ;
694 [label="html_ratio <= 0.47\ngini = 0.494\nsamples = 9\nvalue = [4, 5]"] ;
693 -> 694 ;
695 [label="html_ratio <= 0.451\ngini = 0.408\nsamples = 7\nvalue = [2, 5]"] ;
694 -> 695 ;
696 [label="html_ratio <= 0.449\ngini = 0.5\nsamples = 2\nvalue = [1, 1]"] ;
695 -> 696 ;
697 [label="gini = 0.0\nsamples = 1\nvalue = [0, 1]"] ;
696 -> 697 ;
698 [label="gini = 0.0\nsamples = 1\nvalue = [1, 0]"] ;
696 -> 698 ;
699 [label="html_ratio <= 0.464\ngini = 0.32\nsamples = 5\nvalue = [1, 4]"] ;
695 -> 699 ;
700 [label="gini = 0.0\nsamples = 3\nvalue = [0, 3]"] ;
699 -> 700 ;
701 [label="html_ratio <= 0.468\ngini = 0.5\nsamples = 2\nvalue = [1, 1]"] ;
699 -> 701 ;
702 [label="gini = 0.0\nsamples = 1\nvalue = [1, 0]"] ;
701 -> 702 ;
703 [label="gini = 0.0\nsamples = 1\nvalue = [0, 1]"] ;
701 -> 703 ;
704 [label="gini = 0.0\nsamples = 2\nvalue = [2, 0]"] ;
694 -> 704 ;
705 [label="gini = 0.0\nsamples = 3\nvalue = [0, 3]"] ;
693 -> 705 ;
706 [label="gini = 0.0\nsamples = 3\nvalue = [3, 0]"] ;
692 -> 706 ;
707 [label="html_ratio <= 0.5\ngini = 0.278\nsamples = 6\nvalue = [5, 1]"] ;
691 -> 707 ;
708 [label="gini = 0.0\nsamples = 4\nvalue = [4, 0]"] ;
707 -> 708 ;
709 [label="html_ratio <= 0.503\ngini = 0.5\nsamples = 2\nvalue = [1, 1]"] ;
707 -> 709 ;
710 [label="gini = 0.0\nsamples = 1\nvalue = [0, 1]"] ;
709 -> 710 ;
711 [label="gini = 0.0\nsamples = 1\nvalue = [1, 0]"] ;
709 -> 711 ;
712 [label="html_ratio <= 0.541\ngini = 0.375\nsamples = 4\nvalue = [1, 3]"] ;
690 -> 712 ;
713 [label="gini = 0.0\nsamples = 2\nvalue = [0, 2]"] ;
712 -> 713 ;
714 [label="html_ratio <= 0.561\ngini = 0.5\nsamples = 2\nvalue = [1, 1]"] ;
712 -> 714 ;
715 [label="gini = 0.0\nsamples = 1\nvalue = [1, 0]"] ;
714 -> 715 ;
716 [label="gini = 0.0\nsamples = 1\nvalue = [0, 1]"] ;
714 -> 716 ;
717 [label="gini = 0.0\nsamples = 2\nvalue = [2, 0]"] ;
689 -> 717 ;
718 [label="html_ratio <= 0.204\ngini = 0.498\nsamples = 5361\nvalue = [2507, 2854]"] ;
2 -> 718 ;
719 [label="html_ratio <= 0.156\ngini = 0.479\nsamples = 1163\nvalue = [461, 702]"] ;
718 -> 719 ;
720 [label="image_ratio <= 0.047\ngini = 0.478\nsamples = 106\nvalue = [64, 42]"] ;
719 -> 720 ;
721 [label="html_ratio <= 0.094\ngini = 0.355\nsamples = 13\nvalue = [3, 10]"] ;
720 -> 721 ;
722 [label="gini = 0.0\nsamples = 1\nvalue = [1, 0]"] ;
721 -> 722 ;
723 [label="html_ratio <= 0.152\ngini = 0.278\nsamples = 12\nvalue = [2, 10]"] ;
721 -> 723 ;
724 [label="image_ratio <= 0.016\ngini = 0.18\nsamples = 10\nvalue = [1, 9]"] ;
723 -> 724 ;
725 [label="gini = 0.0\nsamples = 5\nvalue = [0, 5]"] ;
724 -> 725 ;
726 [label="image_ratio <= 0.022\ngini = 0.32\nsamples = 5\nvalue = [1, 4]"] ;
724 -> 726 ;
727 [label="gini = 0.0\nsamples = 1\nvalue = [1, 0]"] ;
726 -> 727 ;
728 [label="gini = 0.0\nsamples = 4\nvalue = [0, 4]"] ;
726 -> 728 ;
729 [label="html_ratio <= 0.153\ngini = 0.5\nsamples = 2\nvalue = [1, 1]"] ;
723 -> 729 ;
730 [label="gini = 0.0\nsamples = 1\nvalue = [1, 0]"] ;
729 -> 730 ;
731 [label="gini = 0.0\nsamples = 1\nvalue = [0, 1]"] ;
729 -> 731 ;
732 [label="image_ratio <= 0.417\ngini = 0.451\nsamples = 93\nvalue = [61, 32]"] ;
720 -> 732 ;
733 [label="html_ratio <= 0.089\ngini = 0.431\nsamples = 89\nvalue = [61, 28]"] ;
732 -> 733 ;
734 [label="gini = 0.0\nsamples = 3\nvalue = [0, 3]"] ;
733 -> 734 ;
735 [label="html_ratio <= 0.153\ngini = 0.412\nsamples = 86\nvalue = [61, 25]"] ;
733 -> 735 ;
736 [label="html_ratio <= 0.138\ngini = 0.436\nsamples = 78\nvalue = [53, 25]"] ;
735 -> 736 ;
737 [label="image_ratio <= 0.38\ngini = 0.335\nsamples = 47\nvalue = [37, 10]"] ;
736 -> 737 ;
738 [label="image_ratio <= 0.342\ngini = 0.381\nsamples = 39\nvalue = [29, 10]"] ;
737 -> 738 ;
739 [label="html_ratio <= 0.117\ngini = 0.339\nsamples = 37\nvalue = [29, 8]"] ;
738 -> 739 ;
740 [label="gini = 0.0\nsamples = 13\nvalue = [13, 0]"] ;
739 -> 740 ;
741 [label="html_ratio <= 0.126\ngini = 0.444\nsamples = 24\nvalue = [16, 8]"] ;
739 -> 741 ;
742 [label="image_ratio <= 0.133\ngini = 0.469\nsamples = 8\nvalue = [3, 5]"] ;
741 -> 742 ;
743 [label="gini = 0.0\nsamples = 3\nvalue = [0, 3]"] ;
742 -> 743 ;
744 [label="image_ratio <= 0.238\ngini = 0.48\nsamples = 5\nvalue = [3, 2]"] ;
742 -> 744 ;
745 [label="gini = 0.0\nsamples = 3\nvalue = [3, 0]"] ;
744 -> 745 ;
746 [label="gini = 0.0\nsamples = 2\nvalue = [0, 2]"] ;
744 -> 746 ;
747 [label="html_ratio <= 0.135\ngini = 0.305\nsamples = 16\nvalue = [13, 3]"] ;
741 -> 747 ;
748 [label="image_ratio <= 0.15\ngini = 0.165\nsamples = 11\nvalue = [10, 1]"] ;
747 -> 748 ;
749 [label="image_ratio <= 0.144\ngini = 0.375\nsamples = 4\nvalue = [3, 1]"] ;
748 -> 749 ;
750 [label="gini = 0.0\nsamples = 3\nvalue = [3, 0]"] ;
749 -> 750 ;
751 [label="gini = 0.0\nsamples = 1\nvalue = [0, 1]"] ;
749 -> 751 ;
752 [label="gini = 0.0\nsamples = 7\nvalue = [7, 0]"] ;
748 -> 752 ;
753 [label="html_ratio <= 0.136\ngini = 0.48\nsamples = 5\nvalue = [3, 2]"] ;
747 -> 753 ;
754 [label="gini = 0.0\nsamples = 2\nvalue = [0, 2]"] ;
753 -> 754 ;
755 [label="gini = 0.0\nsamples = 3\nvalue = [3, 0]"] ;
753 -> 755 ;
756 [label="gini = 0.0\nsamples = 2\nvalue = [0, 2]"] ;
738 -> 756 ;
757 [label="gini = 0.0\nsamples = 8\nvalue = [8, 0]"] ;
737 -> 757 ;
758 [label="image_ratio <= 0.321\ngini = 0.499\nsamples = 31\nvalue = [16, 15]"] ;
736 -> 758 ;
759 [label="image_ratio <= 0.111\ngini = 0.486\nsamples = 24\nvalue = [10, 14]"] ;
758 -> 759 ;
760 [label="gini = 0.0\nsamples = 3\nvalue = [3, 0]"] ;
759 -> 760 ;
761 [label="html_ratio <= 0.147\ngini = 0.444\nsamples = 21\nvalue = [7, 14]"] ;
759 -> 761 ;
762 [label="html_ratio <= 0.143\ngini = 0.26\nsamples = 13\nvalue = [2, 11]"] ;
761 -> 762 ;
763 [label="html_ratio <= 0.141\ngini = 0.444\nsamples = 6\nvalue = [2, 4]"] ;
762 -> 763 ;
764 [label="gini = 0.0\nsamples = 3\nvalue = [0, 3]"] ;
763 -> 764 ;
765 [label="image_ratio <= 0.184\ngini = 0.444\nsamples = 3\nvalue = [2, 1]"] ;
763 -> 765 ;
766 [label="gini = 0.0\nsamples = 1\nvalue = [0, 1]"] ;
765 -> 766 ;
767 [label="gini = 0.0\nsamples = 2\nvalue = [2, 0]"] ;
765 -> 767 ;
768 [label="gini = 0.0\nsamples = 7\nvalue = [0, 7]"] ;
762 -> 768 ;
769 [label="image_ratio <= 0.154\ngini = 0.469\nsamples = 8\nvalue = [5, 3]"] ;
761 -> 769 ;
770 [label="gini = 0.0\nsamples = 1\nvalue = [0, 1]"] ;
769 -> 770 ;
771 [label="image_ratio <= 0.208\ngini = 0.408\nsamples = 7\nvalue = [5, 2]"] ;
769 -> 771 ;
772 [label="gini = 0.0\nsamples = 2\nvalue = [2, 0]"] ;
771 -> 772 ;
773 [label="image_ratio <= 0.213\ngini = 0.48\nsamples = 5\nvalue = [3, 2]"] ;
771 -> 773 ;
774 [label="gini = 0.0\nsamples = 1\nvalue = [0, 1]"] ;
773 -> 774 ;
775 [label="image_ratio <= 0.258\ngini = 0.375\nsamples = 4\nvalue = [3, 1]"] ;
773 -> 775 ;
776 [label="gini = 0.0\nsamples = 2\nvalue = [2, 0]"] ;
775 -> 776 ;
777 [label="image_ratio <= 0.295\ngini = 0.5\nsamples = 2\nvalue = [1, 1]"] ;
775 -> 777 ;
778 [label="gini = 0.0\nsamples = 1\nvalue = [0, 1]"] ;
777 -> 778 ;
779 [label="gini = 0.0\nsamples = 1\nvalue = [1, 0]"] ;
777 -> 779 ;
780 [label="html_ratio <= 0.139\ngini = 0.245\nsamples = 7\nvalue = [6, 1]"] ;
758 -> 780 ;
781 [label="gini = 0.0\nsamples = 1\nvalue = [0, 1]"] ;
780 -> 781 ;
782 [label="gini = 0.0\nsamples = 6\nvalue = [6, 0]"] ;
780 -> 782 ;
783 [label="gini = 0.0\nsamples = 8\nvalue = [8, 0]"] ;
735 -> 783 ;
784 [label="gini = 0.0\nsamples = 4\nvalue = [0, 4]"] ;
732 -> 784 ;
785 [label="image_ratio <= 0.04\ngini = 0.469\nsamples = 1057\nvalue = [397, 660]"] ;
719 -> 785 ;
786 [label="html_ratio <= 0.203\ngini = 0.497\nsamples = 132\nvalue = [61, 71]"] ;
785 -> 786 ;
787 [label="html_ratio <= 0.198\ngini = 0.493\nsamples = 125\nvalue = [55, 70]"] ;
786 -> 787 ;
788 [label="html_ratio <= 0.193\ngini = 0.496\nsamples = 118\nvalue = [54, 64]"] ;
787 -> 788 ;
789 [label="image_ratio <= 0.015\ngini = 0.489\nsamples = 106\nvalue = [45, 61]"] ;
788 -> 789 ;
790 [label="image_ratio <= 0.002\ngini = 0.386\nsamples = 23\nvalue = [6, 17]"] ;
789 -> 790 ;
791 [label="gini = 0.0\nsamples = 1\nvalue = [1, 0]"] ;
790 -> 791 ;
792 [label="image_ratio <= 0.012\ngini = 0.351\nsamples = 22\nvalue = [5, 17]"] ;
790 -> 792 ;
793 [label="image_ratio <= 0.011\ngini = 0.43\nsamples = 16\nvalue = [5, 11]"] ;
792 -> 793 ;
794 [label="image_ratio <= 0.004\ngini = 0.337\nsamples = 14\nvalue = [3, 11]"] ;
793 -> 794 ;
795 [label="gini = 0.0\nsamples = 4\nvalue = [0, 4]"] ;
794 -> 795 ;
796 [label="image_ratio <= 0.009\ngini = 0.42\nsamples = 10\nvalue = [3, 7]"] ;
794 -> 796 ;
797 [label="image_ratio <= 0.008\ngini = 0.5\nsamples = 6\nvalue = [3, 3]"] ;
796 -> 797 ;
798 [label="image_ratio <= 0.005\ngini = 0.375\nsamples = 4\nvalue = [1, 3]"] ;
797 -> 798 ;
799 [label="gini = 0.0\nsamples = 1\nvalue = [1, 0]"] ;
798 -> 799 ;
800 [label="gini = 0.0\nsamples = 3\nvalue = [0, 3]"] ;
798 -> 800 ;
801 [label="gini = 0.0\nsamples = 2\nvalue = [2, 0]"] ;
797 -> 801 ;
802 [label="gini = 0.0\nsamples = 4\nvalue = [0, 4]"] ;
796 -> 802 ;
803 [label="gini = 0.0\nsamples = 2\nvalue = [2, 0]"] ;
793 -> 803 ;
804 [label="gini = 0.0\nsamples = 6\nvalue = [0, 6]"] ;
792 -> 804 ;
805 [label="image_ratio <= 0.017\ngini = 0.498\nsamples = 83\nvalue = [39, 44]"] ;
789 -> 805 ;
806 [label="html_ratio <= 0.171\ngini = 0.198\nsamples = 9\nvalue = [8, 1]"] ;
805 -> 806 ;
807 [label="gini = 0.0\nsamples = 6\nvalue = [6, 0]"] ;
806 -> 807 ;
808 [label="html_ratio <= 0.172\ngini = 0.444\nsamples = 3\nvalue = [2, 1]"] ;
806 -> 808 ;
809 [label="gini = 0.0\nsamples = 1\nvalue = [0, 1]"] ;
808 -> 809 ;
810 [label="gini = 0.0\nsamples = 2\nvalue = [2, 0]"] ;
808 -> 810 ;
811 [label="image_ratio <= 0.018\ngini = 0.487\nsamples = 74\nvalue = [31, 43]"] ;
805 -> 811 ;
812 [label="gini = 0.0\nsamples = 5\nvalue = [0, 5]"] ;
811 -> 812 ;
813 [label="image_ratio <= 0.029\ngini = 0.495\nsamples = 69\nvalue = [31, 38]"] ;
811 -> 813 ;
814 [label="image_ratio <= 0.018\ngini = 0.475\nsamples = 49\nvalue = [19, 30]"] ;
813 -> 814 ;
815 [label="gini = 0.0\nsamples = 2\nvalue = [2, 0]"] ;
814 -> 815 ;
816 [label="html_ratio <= 0.171\ngini = 0.462\nsamples = 47\nvalue = [17, 30]"] ;
814 -> 816 ;
817 [label="image_ratio <= 0.019\ngini = 0.346\nsamples = 18\nvalue = [4, 14]"] ;
816 -> 817 ;
818 [label="gini = 0.0\nsamples = 4\nvalue = [0, 4]"] ;
817 -> 818 ;
819 [label="image_ratio <= 0.02\ngini = 0.408\nsamples = 14\nvalue = [4, 10]"] ;
817 -> 819 ;
820 [label="gini = 0.0\nsamples = 1\nvalue = [1, 0]"] ;
819 -> 820 ;
821 [label="image_ratio <= 0.021\ngini = 0.355\nsamples = 13\nvalue = [3, 10]"] ;
819 -> 821 ;
822 [label="image_ratio <= 0.02\ngini = 0.48\nsamples = 5\nvalue = [2, 3]"] ;
821 -> 822 ;
823 [label="gini = 0.0\nsamples = 3\nvalue = [0, 3]"] ;
822 -> 823 ;
824 [label="gini = 0.0\nsamples = 2\nvalue = [2, 0]"] ;
822 -> 824 ;
825 [label="image_ratio <= 0.027\ngini = 0.219\nsamples = 8\nvalue = [1, 7]"] ;
821 -> 825 ;
826 [label="gini = 0.0\nsamples = 6\nvalue = [0, 6]"] ;
825 -> 826 ;
827 [label="html_ratio <= 0.164\ngini = 0.5\nsamples = 2\nvalue = [1, 1]"] ;
825 -> 827 ;
828 [label="gini = 0.0\nsamples = 1\nvalue = [0, 1]"] ;
827 -> 828 ;
829 [label="gini = 0.0\nsamples = 1\nvalue = [1, 0]"] ;
827 -> 829 ;
830 [label="html_ratio <= 0.179\ngini = 0.495\nsamples = 29\nvalue = [13, 16]"] ;
816 -> 830 ;
831 [label="image_ratio <= 0.026\ngini = 0.475\nsamples = 18\nvalue = [11, 7]"] ;
830 -> 831 ;
832 [label="image_ratio <= 0.021\ngini = 0.408\nsamples = 14\nvalue = [10, 4]"] ;
831 -> 832 ;
833 [label="html_ratio <= 0.177\ngini = 0.494\nsamples = 9\nvalue = [5, 4]"] ;
832 -> 833 ;
834 [label="image_ratio <= 0.019\ngini = 0.49\nsamples = 7\nvalue = [3, 4]"] ;
833 -> 834 ;
835 [label="gini = 0.0\nsamples = 2\nvalue = [0, 2]"] ;
834 -> 835 ;
836 [label="image_ratio <= 0.021\ngini = 0.48\nsamples = 5\nvalue = [3, 2]"] ;
834 -> 836 ;
837 [label="gini = 0.0\nsamples = 3\nvalue = [3, 0]"] ;
836 -> 837 ;
838 [label="gini = 0.0\nsamples = 2\nvalue = [0, 2]"] ;
836 -> 838 ;
839 [label="gini = 0.0\nsamples = 2\nvalue = [2, 0]"] ;
833 -> 839 ;
840 [label="gini = 0.0\nsamples = 5\nvalue = [5, 0]"] ;
832 -> 840 ;
841 [label="html_ratio <= 0.173\ngini = 0.375\nsamples = 4\nvalue = [1, 3]"] ;
831 -> 841 ;
842 [label="gini = 0.0\nsamples = 2\nvalue = [0, 2]"] ;
841 -> 842 ;
843 [label="html_ratio <= 0.174\ngini = 0.5\nsamples = 2\nvalue = [1, 1]"] ;
841 -> 843 ;
844 [label="gini = 0.0\nsamples = 1\nvalue = [1, 0]"] ;
843 -> 844 ;
845 [label="gini = 0.0\nsamples = 1\nvalue = [0, 1]"] ;
843 -> 845 ;
846 [label="html_ratio <= 0.192\ngini = 0.298\nsamples = 11\nvalue = [2, 9]"] ;
830 -> 846 ;
847 [label="html_ratio <= 0.184\ngini = 0.18\nsamples = 10\nvalue = [1, 9]"] ;
846 -> 847 ;
848 [label="html_ratio <= 0.184\ngini = 0.375\nsamples = 4\nvalue = [1, 3]"] ;
847 -> 848 ;
849 [label="gini = 0.0\nsamples = 3\nvalue = [0, 3]"] ;
848 -> 849 ;
850 [label="gini = 0.0\nsamples = 1\nvalue = [1, 0]"] ;
848 -> 850 ;
851 [label="gini = 0.0\nsamples = 6\nvalue = [0, 6]"] ;
847 -> 851 ;
852 [label="gini = 0.0\nsamples = 1\nvalue = [1, 0]"] ;
846 -> 852 ;
853 [label="html_ratio <= 0.161\ngini = 0.48\nsamples = 20\nvalue = [12, 8]"] ;
813 -> 853 ;
854 [label="gini = 0.0\nsamples = 2\nvalue = [0, 2]"] ;
853 -> 854 ;
855 [label="image_ratio <= 0.032\ngini = 0.444\nsamples = 18\nvalue = [12, 6]"] ;
853 -> 855 ;
856 [label="gini = 0.0\nsamples = 5\nvalue = [5, 0]"] ;
855 -> 856 ;
857 [label="html_ratio <= 0.168\ngini = 0.497\nsamples = 13\nvalue = [7, 6]"] ;
855 -> 857 ;
858 [label="gini = 0.0\nsamples = 2\nvalue = [2, 0]"] ;
857 -> 858 ;
859 [label="html_ratio <= 0.179\ngini = 0.496\nsamples = 11\nvalue = [5, 6]"] ;
857 -> 859 ;
860 [label="gini = 0.0\nsamples = 4\nvalue = [0, 4]"] ;
859 -> 860 ;
861 [label="image_ratio <= 0.037\ngini = 0.408\nsamples = 7\nvalue = [5, 2]"] ;
859 -> 861 ;
862 [label="gini = 0.0\nsamples = 3\nvalue = [3, 0]"] ;
861 -> 862 ;
863 [label="image_ratio <= 0.038\ngini = 0.5\nsamples = 4\nvalue = [2, 2]"] ;
861 -> 863 ;
864 [label="gini = 0.0\nsamples = 1\nvalue = [0, 1]"] ;
863 -> 864 ;
865 [label="html_ratio <= 0.183\ngini = 0.444\nsamples = 3\nvalue = [2, 1]"] ;
863 -> 865 ;
866 [label="gini = 0.0\nsamples = 1\nvalue = [1, 0]"] ;
865 -> 866 ;
867 [label="image_ratio <= 0.039\ngini = 0.5\nsamples = 2\nvalue = [1, 1]"] ;
865 -> 867 ;
868 [label="gini = 0.0\nsamples = 1\nvalue = [1, 0]"] ;
867 -> 868 ;
869 [label="gini = 0.0\nsamples = 1\nvalue = [0, 1]"] ;
867 -> 869 ;
870 [label="image_ratio <= 0.006\ngini = 0.375\nsamples = 12\nvalue = [9, 3]"] ;
788 -> 870 ;
871 [label="gini = 0.0\nsamples = 1\nvalue = [0, 1]"] ;
870 -> 871 ;
872 [label="image_ratio <= 0.021\ngini = 0.298\nsamples = 11\nvalue = [9, 2]"] ;
870 -> 872 ;
873 [label="gini = 0.0\nsamples = 5\nvalue = [5, 0]"] ;
872 -> 873 ;
874 [label="image_ratio <= 0.025\ngini = 0.444\nsamples = 6\nvalue = [4, 2]"] ;
872 -> 874 ;
875 [label="gini = 0.0\nsamples = 1\nvalue = [0, 1]"] ;
874 -> 875 ;
876 [label="image_ratio <= 0.03\ngini = 0.32\nsamples = 5\nvalue = [4, 1]"] ;
874 -> 876 ;
877 [label="gini = 0.0\nsamples = 2\nvalue = [2, 0]"] ;
876 -> 877 ;
878 [label="image_ratio <= 0.034\ngini = 0.444\nsamples = 3\nvalue = [2, 1]"] ;
876 -> 878 ;
879 [label="gini = 0.0\nsamples = 1\nvalue = [0, 1]"] ;
878 -> 879 ;
880 [label="gini = 0.0\nsamples = 2\nvalue = [2, 0]"] ;
878 -> 880 ;
881 [label="image_ratio <= 0.021\ngini = 0.245\nsamples = 7\nvalue = [1, 6]"] ;
787 -> 881 ;
882 [label="image_ratio <= 0.016\ngini = 0.5\nsamples = 2\nvalue = [1, 1]"] ;
881 -> 882 ;
883 [label="gini = 0.0\nsamples = 1\nvalue = [0, 1]"] ;
882 -> 883 ;
884 [label="gini = 0.0\nsamples = 1\nvalue = [1, 0]"] ;
882 -> 884 ;
885 [label="gini = 0.0\nsamples = 5\nvalue = [0, 5]"] ;
881 -> 885 ;
886 [label="html_ratio <= 0.204\ngini = 0.245\nsamples = 7\nvalue = [6, 1]"] ;
786 -> 886 ;
887 [label="gini = 0.0\nsamples = 5\nvalue = [5, 0]"] ;
886 -> 887 ;
888 [label="html_ratio <= 0.204\ngini = 0.5\nsamples = 2\nvalue = [1, 1]"] ;
886 -> 888 ;
889 [label="gini = 0.0\nsamples = 1\nvalue = [0, 1]"] ;
888 -> 889 ;
890 [label="gini = 0.0\nsamples = 1\nvalue = [1, 0]"] ;
888 -> 890 ;
891 [label="html_ratio <= 0.204\ngini = 0.463\nsamples = 925\nvalue = [336, 589]"] ;
785 -> 891 ;
892 [label="html_ratio <= 0.204\ngini = 0.465\nsamples = 911\nvalue = [335, 576]"] ;
891 -> 892 ;
893 [label="image_ratio <= 0.251\ngini = 0.464\nsamples = 908\nvalue = [332, 576]"] ;
892 -> 893 ;
894 [label="html_ratio <= 0.18\ngini = 0.452\nsamples = 678\nvalue = [234, 444]"] ;
893 -> 894 ;
895 [label="image_ratio <= 0.107\ngini = 0.488\nsamples = 190\nvalue = [80, 110]"] ;
894 -> 895 ;
896 [label="image_ratio <= 0.078\ngini = 0.499\nsamples = 71\nvalue = [37, 34]"] ;
895 -> 896 ;
897 [label="html_ratio <= 0.179\ngini = 0.46\nsamples = 39\nvalue = [14, 25]"] ;
896 -> 897 ;
898 [label="image_ratio <= 0.06\ngini = 0.438\nsamples = 37\nvalue = [12, 25]"] ;
897 -> 898 ;
899 [label="image_ratio <= 0.046\ngini = 0.495\nsamples = 20\nvalue = [9, 11]"] ;
898 -> 899 ;
900 [label="html_ratio <= 0.169\ngini = 0.375\nsamples = 8\nvalue = [2, 6]"] ;
899 -> 900 ;
901 [label="image_ratio <= 0.045\ngini = 0.5\nsamples = 4\nvalue = [2, 2]"] ;
900 -> 901 ;
902 [label="gini = 0.0\nsamples = 2\nvalue = [2, 0]"] ;
901 -> 902 ;
903 [label="gini = 0.0\nsamples = 2\nvalue = [0, 2]"] ;
901 -> 903 ;
904 [label="gini = 0.0\nsamples = 4\nvalue = [0, 4]"] ;
900 -> 904 ;
905 [label="html_ratio <= 0.161\ngini = 0.486\nsamples = 12\nvalue = [7, 5]"] ;
899 -> 905 ;
906 [label="gini = 0.0\nsamples = 2\nvalue = [0, 2]"] ;
905 -> 906 ;
907 [label="html_ratio <= 0.169\ngini = 0.42\nsamples = 10\nvalue = [7, 3]"] ;
905 -> 907 ;
908 [label="gini = 0.0\nsamples = 4\nvalue = [4, 0]"] ;
907 -> 908 ;
909 [label="image_ratio <= 0.048\ngini = 0.5\nsamples = 6\nvalue = [3, 3]"] ;
907 -> 909 ;
910 [label="gini = 0.0\nsamples = 2\nvalue = [2, 0]"] ;
909 -> 910 ;
911 [label="image_ratio <= 0.06\ngini = 0.375\nsamples = 4\nvalue = [1, 3]"] ;
909 -> 911 ;
912 [label="gini = 0.0\nsamples = 3\nvalue = [0, 3]"] ;
911 -> 912 ;
913 [label="gini = 0.0\nsamples = 1\nvalue = [1, 0]"] ;
911 -> 913 ;
914 [label="image_ratio <= 0.07\ngini = 0.291\nsamples = 17\nvalue = [3, 14]"] ;
898 -> 914 ;
915 [label="image_ratio <= 0.068\ngini = 0.375\nsamples = 12\nvalue = [3, 9]"] ;
914 -> 915 ;
916 [label="html_ratio <= 0.175\ngini = 0.298\nsamples = 11\nvalue = [2, 9]"] ;
915 -> 916 ;
917 [label="html_ratio <= 0.168\ngini = 0.198\nsamples = 9\nvalue = [1, 8]"] ;
916 -> 917 ;
918 [label="gini = 0.0\nsamples = 4\nvalue = [0, 4]"] ;
917 -> 918 ;
919 [label="html_ratio <= 0.169\ngini = 0.32\nsamples = 5\nvalue = [1, 4]"] ;
917 -> 919 ;
920 [label="gini = 0.0\nsamples = 1\nvalue = [1, 0]"] ;
919 -> 920 ;
921 [label="gini = 0.0\nsamples = 4\nvalue = [0, 4]"] ;
919 -> 921 ;
922 [label="image_ratio <= 0.065\ngini = 0.5\nsamples = 2\nvalue = [1, 1]"] ;
916 -> 922 ;
923 [label="gini = 0.0\nsamples = 1\nvalue = [1, 0]"] ;
922 -> 923 ;
924 [label="gini = 0.0\nsamples = 1\nvalue = [0, 1]"] ;
922 -> 924 ;
925 [label="gini = 0.0\nsamples = 1\nvalue = [1, 0]"] ;
915 -> 925 ;
926 [label="gini = 0.0\nsamples = 5\nvalue = [0, 5]"] ;
914 -> 926 ;
927 [label="gini = 0.0\nsamples = 2\nvalue = [2, 0]"] ;
897 -> 927 ;
928 [label="image_ratio <= 0.089\ngini = 0.404\nsamples = 32\nvalue = [23, 9]"] ;
896 -> 928 ;
929 [label="gini = 0.0\nsamples = 11\nvalue = [11, 0]"] ;
928 -> 929 ;
930 [label="image_ratio <= 0.095\ngini = 0.49\nsamples = 21\nvalue = [12, 9]"] ;
928 -> 930 ;
931 [label="html_ratio <= 0.173\ngini = 0.397\nsamples = 11\nvalue = [3, 8]"] ;
930 -> 931 ;
932 [label="gini = 0.0\nsamples = 4\nvalue = [0, 4]"] ;
931 -> 932 ;
933 [label="html_ratio <= 0.177\ngini = 0.49\nsamples = 7\nvalue = [3, 4]"] ;
931 -> 933 ;
934 [label="html_ratio <= 0.176\ngini = 0.48\nsamples = 5\nvalue = [3, 2]"] ;
933 -> 934 ;
935 [label="html_ratio <= 0.176\ngini = 0.444\nsamples = 3\nvalue = [1, 2]"] ;
934 -> 935 ;
936 [label="gini = 0.0\nsamples = 1\nvalue = [1, 0]"] ;
935 -> 936 ;
937 [label="gini = 0.0\nsamples = 2\nvalue = [0, 2]"] ;
935 -> 937 ;
938 [label="gini = 0.0\nsamples = 2\nvalue = [2, 0]"] ;
934 -> 938 ;
939 [label="gini = 0.0\nsamples = 2\nvalue = [0, 2]"] ;
933 -> 939 ;
940 [label="html_ratio <= 0.175\ngini = 0.18\nsamples = 10\nvalue = [9, 1]"] ;
930 -> 940 ;
941 [label="gini = 0.0\nsamples = 8\nvalue = [8, 0]"] ;
940 -> 941 ;
942 [label="html_ratio <= 0.177\ngini = 0.5\nsamples = 2\nvalue = [1, 1]"] ;
940 -> 942 ;
943 [label="gini = 0.0\nsamples = 1\nvalue = [0, 1]"] ;
942 -> 943 ;
944 [label="gini = 0.0\nsamples = 1\nvalue = [1, 0]"] ;
942 -> 944 ;
945 [label="image_ratio <= 0.131\ngini = 0.462\nsamples = 119\nvalue = [43, 76]"] ;
895 -> 945 ;
946 [label="html_ratio <= 0.175\ngini = 0.105\nsamples = 18\nvalue = [1, 17]"] ;
945 -> 946 ;
947 [label="gini = 0.0\nsamples = 16\nvalue = [0, 16]"] ;
946 -> 947 ;
948 [label="image_ratio <= 0.11\ngini = 0.5\nsamples = 2\nvalue = [1, 1]"] ;
946 -> 948 ;
949 [label="gini = 0.0\nsamples = 1\nvalue = [0, 1]"] ;
948 -> 949 ;
950 [label="gini = 0.0\nsamples = 1\nvalue = [1, 0]"] ;
948 -> 950 ;
951 [label="image_ratio <= 0.221\ngini = 0.486\nsamples = 101\nvalue = [42, 59]"] ;
945 -> 951 ;
952 [label="image_ratio <= 0.181\ngini = 0.496\nsamples = 86\nvalue = [39, 47]"] ;
951 -> 952 ;
953 [label="image_ratio <= 0.164\ngini = 0.469\nsamples = 56\nvalue = [21, 35]"] ;
952 -> 953 ;
954 [label="html_ratio <= 0.17\ngini = 0.5\nsamples = 35\nvalue = [17, 18]"] ;
953 -> 954 ;
955 [label="image_ratio <= 0.145\ngini = 0.475\nsamples = 18\nvalue = [11, 7]"] ;
954 -> 955 ;
956 [label="html_ratio <= 0.16\ngini = 0.469\nsamples = 8\nvalue = [3, 5]"] ;
955 -> 956 ;
957 [label="gini = 0.0\nsamples = 2\nvalue = [2, 0]"] ;
956 -> 957 ;
958 [label="html_ratio <= 0.169\ngini = 0.278\nsamples = 6\nvalue = [1, 5]"] ;
956 -> 958 ;
959 [label="gini = 0.0\nsamples = 5\nvalue = [0, 5]"] ;
958 -> 959 ;
960 [label="gini = 0.0\nsamples = 1\nvalue = [1, 0]"] ;
958 -> 960 ;
961 [label="image_ratio <= 0.155\ngini = 0.32\nsamples = 10\nvalue = [8, 2]"] ;
955 -> 961 ;
962 [label="image_ratio <= 0.148\ngini = 0.444\nsamples = 6\nvalue = [4, 2]"] ;
961 -> 962 ;
963 [label="gini = 0.0\nsamples = 3\nvalue = [3, 0]"] ;
962 -> 963 ;
964 [label="image_ratio <= 0.151\ngini = 0.444\nsamples = 3\nvalue = [1, 2]"] ;
962 -> 964 ;
965 [label="gini = 0.0\nsamples = 1\nvalue = [0, 1]"] ;
964 -> 965 ;
966 [label="image_ratio <= 0.154\ngini = 0.5\nsamples = 2\nvalue = [1, 1]"] ;
964 -> 966 ;
967 [label="gini = 0.0\nsamples = 1\nvalue = [1, 0]"] ;
966 -> 967 ;
968 [label="gini = 0.0\nsamples = 1\nvalue = [0, 1]"] ;
966 -> 968 ;
969 [label="gini = 0.0\nsamples = 4\nvalue = [4, 0]"] ;
961 -> 969 ;
970 [label="html_ratio <= 0.171\ngini = 0.457\nsamples = 17\nvalue = [6, 11]"] ;
954 -> 970 ;
971 [label="gini = 0.0\nsamples = 4\nvalue = [0, 4]"] ;
970 -> 971 ;
972 [label="image_ratio <= 0.153\ngini = 0.497\nsamples = 13\nvalue = [6, 7]"] ;
970 -> 972 ;
973 [label="html_ratio <= 0.175\ngini = 0.469\nsamples = 8\nvalue = [5, 3]"] ;
972 -> 973 ;
974 [label="gini = 0.0\nsamples = 4\nvalue = [4, 0]"] ;
973 -> 974 ;
975 [label="html_ratio <= 0.179\ngini = 0.375\nsamples = 4\nvalue = [1, 3]"] ;
973 -> 975 ;
976 [label="image_ratio <= 0.145\ngini = 0.5\nsamples = 2\nvalue = [1, 1]"] ;
975 -> 976 ;
977 [label="gini = 0.0\nsamples = 1\nvalue = [1, 0]"] ;
976 -> 977 ;
978 [label="gini = 0.0\nsamples = 1\nvalue = [0, 1]"] ;
976 -> 978 ;
979 [label="gini = 0.0\nsamples = 2\nvalue = [0, 2]"] ;
975 -> 979 ;
980 [label="html_ratio <= 0.178\ngini = 0.32\nsamples = 5\nvalue = [1, 4]"] ;
972 -> 980 ;
981 [label="gini = 0.0\nsamples = 3\nvalue = [0, 3]"] ;
980 -> 981 ;
982 [label="image_ratio <= 0.159\ngini = 0.5\nsamples = 2\nvalue = [1, 1]"] ;
980 -> 982 ;
983 [label="gini = 0.0\nsamples = 1\nvalue = [0, 1]"] ;
982 -> 983 ;
984 [label="gini = 0.0\nsamples = 1\nvalue = [1, 0]"] ;
982 -> 984 ;
985 [label="html_ratio <= 0.158\ngini = 0.308\nsamples = 21\nvalue = [4, 17]"] ;
953 -> 985 ;
986 [label="gini = 0.0\nsamples = 1\nvalue = [1, 0]"] ;
985 -> 986 ;
987 [label="html_ratio <= 0.179\ngini = 0.255\nsamples = 20\nvalue = [3, 17]"] ;
985 -> 987 ;
988 [label="image_ratio <= 0.175\ngini = 0.198\nsamples = 18\nvalue = [2, 16]"] ;
987 -> 988 ;
989 [label="gini = 0.0\nsamples = 9\nvalue = [0, 9]"] ;
988 -> 989 ;
990 [label="image_ratio <= 0.176\ngini = 0.346\nsamples = 9\nvalue = [2, 7]"] ;
988 -> 990 ;
991 [label="gini = 0.0\nsamples = 2\nvalue = [2, 0]"] ;
990 -> 991 ;
992 [label="gini = 0.0\nsamples = 7\nvalue = [0, 7]"] ;
990 -> 992 ;
993 [label="html_ratio <= 0.179\ngini = 0.5\nsamples = 2\nvalue = [1, 1]"] ;
987 -> 993 ;
994 [label="gini = 0.0\nsamples = 1\nvalue = [1, 0]"] ;
993 -> 994 ;
995 [label="gini = 0.0\nsamples = 1\nvalue = [0, 1]"] ;
993 -> 995 ;
996 [label="image_ratio <= 0.2\ngini = 0.48\nsamples = 30\nvalue = [18, 12]"] ;
952 -> 996 ;
997 [label="image_ratio <= 0.186\ngini = 0.355\nsamples = 13\nvalue = [10, 3]"] ;
996 -> 997 ;
998 [label="gini = 0.0\nsamples = 3\nvalue = [3, 0]"] ;
997 -> 998 ;
999 [label="image_ratio <= 0.19\ngini = 0.42\nsamples = 10\nvalue = [7, 3]"] ;
997 -> 999 ;
1000 [label="html_ratio <= 0.176\ngini = 0.444\nsamples = 3\nvalue = [1, 2]"] ;
999 -> 1000 ;
1001 [label="gini = 0.0\nsamples = 2\nvalue = [0, 2]"] ;
1000 -> 1001 ;
1002 [label="gini = 0.0\nsamples = 1\nvalue = [1, 0]"] ;
1000 -> 1002 ;
1003 [label="html_ratio <= 0.178\ngini = 0.245\nsamples = 7\nvalue = [6, 1]"] ;
999 -> 1003 ;
1004 [label="gini = 0.0\nsamples = 6\nvalue = [6, 0]"] ;
1003 -> 1004 ;
1005 [label="gini = 0.0\nsamples = 1\nvalue = [0, 1]"] ;
1003 -> 1005 ;
1006 [label="html_ratio <= 0.164\ngini = 0.498\nsamples = 17\nvalue = [8, 9]"] ;
996 -> 1006 ;
1007 [label="gini = 0.0\nsamples = 3\nvalue = [0, 3]"] ;
1006 -> 1007 ;
1008 [label="html_ratio <= 0.169\ngini = 0.49\nsamples = 14\nvalue = [8, 6]"] ;
1006 -> 1008 ;
1009 [label="gini = 0.0\nsamples = 2\nvalue = [2, 0]"] ;
1008 -> 1009 ;
1010 [label="image_ratio <= 0.211\ngini = 0.5\nsamples = 12\nvalue = [6, 6]"] ;
1008 -> 1010 ;
1011 [label="html_ratio <= 0.177\ngini = 0.408\nsamples = 7\nvalue = [5, 2]"] ;
1010 -> 1011 ;
1012 [label="image_ratio <= 0.205\ngini = 0.278\nsamples = 6\nvalue = [5, 1]"] ;
1011 -> 1012 ;
1013 [label="image_ratio <= 0.203\ngini = 0.444\nsamples = 3\nvalue = [2, 1]"] ;
1012 -> 1013 ;
1014 [label="gini = 0.0\nsamples = 2\nvalue = [2, 0]"] ;
1013 -> 1014 ;
1015 [label="gini = 0.0\nsamples = 1\nvalue = [0, 1]"] ;
1013 -> 1015 ;
1016 [label="gini = 0.0\nsamples = 3\nvalue = [3, 0]"] ;
1012 -> 1016 ;
1017 [label="gini = 0.0\nsamples = 1\nvalue = [0, 1]"] ;
1011 -> 1017 ;
1018 [label="image_ratio <= 0.22\ngini = 0.32\nsamples = 5\nvalue = [1, 4]"] ;
1010 -> 1018 ;
1019 [label="gini = 0.0\nsamples = 4\nvalue = [0, 4]"] ;
1018 -> 1019 ;
1020 [label="gini = 0.0\nsamples = 1\nvalue = [1, 0]"] ;
1018 -> 1020 ;
1021 [label="html_ratio <= 0.174\ngini = 0.32\nsamples = 15\nvalue = [3, 12]"] ;
951 -> 1021 ;
1022 [label="gini = 0.0\nsamples = 5\nvalue = [0, 5]"] ;
1021 -> 1022 ;
1023 [label="html_ratio <= 0.178\ngini = 0.42\nsamples = 10\nvalue = [3, 7]"] ;
1021 -> 1023 ;
1024 [label="image_ratio <= 0.246\ngini = 0.444\nsamples = 3\nvalue = [2, 1]"] ;
1023 -> 1024 ;
1025 [label="gini = 0.0\nsamples = 1\nvalue = [1, 0]"] ;
1024 -> 1025 ;
1026 [label="image_ratio <= 0.249\ngini = 0.5\nsamples = 2\nvalue = [1, 1]"] ;
1024 -> 1026 ;
1027 [label="gini = 0.0\nsamples = 1\nvalue = [0, 1]"] ;
1026 -> 1027 ;
1028 [label="gini = 0.0\nsamples = 1\nvalue = [1, 0]"] ;
1026 -> 1028 ;
1029 [label="html_ratio <= 0.179\ngini = 0.245\nsamples = 7\nvalue = [1, 6]"] ;
1023 -> 1029 ;
1030 [label="gini = 0.0\nsamples = 4\nvalue = [0, 4]"] ;
1029 -> 1030 ;
1031 [label="html_ratio <= 0.179\ngini = 0.444\nsamples = 3\nvalue = [1, 2]"] ;
1029 -> 1031 ;
1032 [label="gini = 0.0\nsamples = 1\nvalue = [1, 0]"] ;
1031 -> 1032 ;
1033 [label="gini = 0.0\nsamples = 2\nvalue = [0, 2]"] ;
1031 -> 1033 ;
1034 [label="html_ratio <= 0.184\ngini = 0.432\nsamples = 488\nvalue = [154, 334]"] ;
894 -> 1034 ;
1035 [label="image_ratio <= 0.062\ngini = 0.329\nsamples = 53\nvalue = [11, 42]"] ;
1034 -> 1035 ;
1036 [label="html_ratio <= 0.183\ngini = 0.408\nsamples = 7\nvalue = [5, 2]"] ;
1035 -> 1036 ;
1037 [label="gini = 0.0\nsamples = 4\nvalue = [4, 0]"] ;
1036 -> 1037 ;
1038 [label="html_ratio <= 0.183\ngini = 0.444\nsamples = 3\nvalue = [1, 2]"] ;
1036 -> 1038 ;
1039 [label="gini = 0.0\nsamples = 1\nvalue = [0, 1]"] ;
1038 -> 1039 ;
1040 [label="image_ratio <= 0.051\ngini = 0.5\nsamples = 2\nvalue = [1, 1]"] ;
1038 -> 1040 ;
1041 [label="gini = 0.0\nsamples = 1\nvalue = [1, 0]"] ;
1040 -> 1041 ;
1042 [label="gini = 0.0\nsamples = 1\nvalue = [0, 1]"] ;
1040 -> 1042 ;
1043 [label="image_ratio <= 0.109\ngini = 0.227\nsamples = 46\nvalue = [6, 40]"] ;
1035 -> 1043 ;
1044 [label="image_ratio <= 0.091\ngini = 0.397\nsamples = 11\nvalue = [3, 8]"] ;
1043 -> 1044 ;
1045 [label="gini = 0.0\nsamples = 7\nvalue = [0, 7]"] ;
1044 -> 1045 ;
1046 [label="html_ratio <= 0.181\ngini = 0.375\nsamples = 4\nvalue = [3, 1]"] ;
1044 -> 1046 ;
1047 [label="gini = 0.0\nsamples = 1\nvalue = [0, 1]"] ;
1046 -> 1047 ;
1048 [label="gini = 0.0\nsamples = 3\nvalue = [3, 0]"] ;
1046 -> 1048 ;
1049 [label="html_ratio <= 0.181\ngini = 0.157\nsamples = 35\nvalue = [3, 32]"] ;
1043 -> 1049 ;
1050 [label="html_ratio <= 0.181\ngini = 0.375\nsamples = 4\nvalue = [1, 3]"] ;
1049 -> 1050 ;
1051 [label="gini = 0.0\nsamples = 3\nvalue = [0, 3]"] ;
1050 -> 1051 ;
1052 [label="gini = 0.0\nsamples = 1\nvalue = [1, 0]"] ;
1050 -> 1052 ;
1053 [label="html_ratio <= 0.183\ngini = 0.121\nsamples = 31\nvalue = [2, 29]"] ;
1049 -> 1053 ;
1054 [label="gini = 0.0\nsamples = 18\nvalue = [0, 18]"] ;
1053 -> 1054 ;
1055 [label="html_ratio <= 0.183\ngini = 0.26\nsamples = 13\nvalue = [2, 11]"] ;
1053 -> 1055 ;
1056 [label="gini = 0.0\nsamples = 2\nvalue = [2, 0]"] ;
1055 -> 1056 ;
1057 [label="gini = 0.0\nsamples = 11\nvalue = [0, 11]"] ;
1055 -> 1057 ;
1058 [label="html_ratio <= 0.184\ngini = 0.441\nsamples = 435\nvalue = [143, 292]"] ;
1034 -> 1058 ;
1059 [label="gini = 0.0\nsamples = 7\nvalue = [7, 0]"] ;
1058 -> 1059 ;
1060 [label="image_ratio <= 0.044\ngini = 0.434\nsamples = 428\nvalue = [136, 292]"] ;
1058 -> 1060 ;
1061 [label="gini = 0.0\nsamples = 6\nvalue = [0, 6]"] ;
1060 -> 1061 ;
1062 [label="html_ratio <= 0.185\ngini = 0.437\nsamples = 422\nvalue = [136, 286]"] ;
1060 -> 1062 ;
1063 [label="gini = 0.0\nsamples = 5\nvalue = [0, 5]"] ;
1062 -> 1063 ;
1064 [label="html_ratio <= 0.2\ngini = 0.44\nsamples = 417\nvalue = [136, 281]"] ;
1062 -> 1064 ;
1065 [label="html_ratio <= 0.2\ngini = 0.454\nsamples = 301\nvalue = [105, 196]"] ;
1064 -> 1065 ;
1066 [label="html_ratio <= 0.199\ngini = 0.45\nsamples = 296\nvalue = [101, 195]"] ;
1065 -> 1066 ;
1067 [label="html_ratio <= 0.197\ngini = 0.454\nsamples = 290\nvalue = [101, 189]"] ;
1066 -> 1067 ;
1068 [label="html_ratio <= 0.197\ngini = 0.438\nsamples = 241\nvalue = [78, 163]"] ;
1067 -> 1068 ;
1069 [label="html_ratio <= 0.197\ngini = 0.443\nsamples = 236\nvalue = [78, 158]"] ;
1068 -> 1069 ;
1070 [label="html_ratio <= 0.196\ngini = 0.439\nsamples = 234\nvalue = [76, 158]"] ;
1069 -> 1070 ;
1071 [label="html_ratio <= 0.185\ngini = 0.443\nsamples = 229\nvalue = [76, 153]"] ;
1070 -> 1071 ;
1072 [label="gini = 0.0\nsamples = 1\nvalue = [1, 0]"] ;
1071 -> 1072 ;
1073 [label="html_ratio <= 0.196\ngini = 0.441\nsamples = 228\nvalue = [75, 153]"] ;
1071 -> 1073 ;
1074 [label="image_ratio <= 0.046\ngini = 0.439\nsamples = 227\nvalue = [74, 153]"] ;
1073 -> 1074 ;
1075 [label="gini = 0.0\nsamples = 3\nvalue = [0, 3]"] ;
1074 -> 1075 ;
1076 [label="image_ratio <= 0.047\ngini = 0.442\nsamples = 224\nvalue = [74, 150]"] ;
1074 -> 1076 ;
1077 [label="gini = 0.0\nsamples = 1\nvalue = [1, 0]"] ;
1076 -> 1077 ;
1078 [label="html_ratio <= 0.19\ngini = 0.44\nsamples = 223\nvalue = [73, 150]"] ;
1076 -> 1078 ;
1079 [label="html_ratio <= 0.189\ngini = 0.465\nsamples = 106\nvalue = [39, 67]"] ;
1078 -> 1079 ;
1080 [label="html_ratio <= 0.187\ngini = 0.434\nsamples = 91\nvalue = [29, 62]"] ;
1079 -> 1080 ;
1081 [label="html_ratio <= 0.186\ngini = 0.478\nsamples = 38\nvalue = [15, 23]"] ;
1080 -> 1081 ;
1082 [label="image_ratio <= 0.18\ngini = 0.417\nsamples = 27\nvalue = [8, 19]"] ;
1081 -> 1082 ;
1083 [label="image_ratio <= 0.157\ngini = 0.454\nsamples = 23\nvalue = [8, 15]"] ;
1082 -> 1083 ;
1084 [label="image_ratio <= 0.125\ngini = 0.388\nsamples = 19\nvalue = [5, 14]"] ;
1083 -> 1084 ;
1085 [label="html_ratio <= 0.185\ngini = 0.444\nsamples = 15\nvalue = [5, 10]"] ;
1084 -> 1085 ;
1086 [label="gini = 0.0\nsamples = 1\nvalue = [1, 0]"] ;
1085 -> 1086 ;
1087 [label="html_ratio <= 0.185\ngini = 0.408\nsamples = 14\nvalue = [4, 10]"] ;
1085 -> 1087 ;
1088 [label="image_ratio <= 0.058\ngini = 0.298\nsamples = 11\nvalue = [2, 9]"] ;
1087 -> 1088 ;
1089 [label="html_ratio <= 0.185\ngini = 0.5\nsamples = 2\nvalue = [1, 1]"] ;
1088 -> 1089 ;
1090 [label="gini = 0.0\nsamples = 1\nvalue = [1, 0]"] ;
1089 -> 1090 ;
1091 [label="gini = 0.0\nsamples = 1\nvalue = [0, 1]"] ;
1089 -> 1091 ;
1092 [label="html_ratio <= 0.185\ngini = 0.198\nsamples = 9\nvalue = [1, 8]"] ;
1088 -> 1092 ;
1093 [label="html_ratio <= 0.185\ngini = 0.444\nsamples = 3\nvalue = [1, 2]"] ;
1092 -> 1093 ;
1094 [label="gini = 0.0\nsamples = 2\nvalue = [0, 2]"] ;
1093 -> 1094 ;
1095 [label="gini = 0.0\nsamples = 1\nvalue = [1, 0]"] ;
1093 -> 1095 ;
1096 [label="gini = 0.0\nsamples = 6\nvalue = [0, 6]"] ;
1092 -> 1096 ;
1097 [label="image_ratio <= 0.085\ngini = 0.444\nsamples = 3\nvalue = [2, 1]"] ;
1087 -> 1097 ;
1098 [label="gini = 0.0\nsamples = 1\nvalue = [0, 1]"] ;
1097 -> 1098 ;
1099 [label="gini = 0.0\nsamples = 2\nvalue = [2, 0]"] ;
1097 -> 1099 ;
1100 [label="gini = 0.0\nsamples = 4\nvalue = [0, 4]"] ;
1084 -> 1100 ;
1101 [label="html_ratio <= 0.185\ngini = 0.375\nsamples = 4\nvalue = [3, 1]"] ;
1083 -> 1101 ;
1102 [label="gini = 0.0\nsamples = 2\nvalue = [2, 0]"] ;
1101 -> 1102 ;
1103 [label="image_ratio <= 0.17\ngini = 0.5\nsamples = 2\nvalue = [1, 1]"] ;
1101 -> 1103 ;
1104 [label="gini = 0.0\nsamples = 1\nvalue = [0, 1]"] ;
1103 -> 1104 ;
1105 [label="gini = 0.0\nsamples = 1\nvalue = [1, 0]"] ;
1103 -> 1105 ;
1106 [label="gini = 0.0\nsamples = 4\nvalue = [0, 4]"] ;
1082 -> 1106 ;
1107 [label="html_ratio <= 0.186\ngini = 0.463\nsamples = 11\nvalue = [7, 4]"] ;
1081 -> 1107 ;
1108 [label="gini = 0.0\nsamples = 3\nvalue = [3, 0]"] ;
1107 -> 1108 ;
1109 [label="image_ratio <= 0.107\ngini = 0.5\nsamples = 8\nvalue = [4, 4]"] ;
1107 -> 1109 ;
1110 [label="gini = 0.0\nsamples = 2\nvalue = [0, 2]"] ;
1109 -> 1110 ;
1111 [label="html_ratio <= 0.186\ngini = 0.444\nsamples = 6\nvalue = [4, 2]"] ;
1109 -> 1111 ;
1112 [label="gini = 0.0\nsamples = 1\nvalue = [0, 1]"] ;
1111 -> 1112 ;
1113 [label="image_ratio <= 0.134\ngini = 0.32\nsamples = 5\nvalue = [4, 1]"] ;
1111 -> 1113 ;
1114 [label="image_ratio <= 0.113\ngini = 0.5\nsamples = 2\nvalue = [1, 1]"] ;
1113 -> 1114 ;
1115 [label="gini = 0.0\nsamples = 1\nvalue = [1, 0]"] ;
1114 -> 1115 ;
1116 [label="gini = 0.0\nsamples = 1\nvalue = [0, 1]"] ;
1114 -> 1116 ;
1117 [label="gini = 0.0\nsamples = 3\nvalue = [3, 0]"] ;
1113 -> 1117 ;
1118 [label="image_ratio <= 0.125\ngini = 0.389\nsamples = 53\nvalue = [14, 39]"] ;
1080 -> 1118 ;
1119 [label="html_ratio <= 0.188\ngini = 0.477\nsamples = 28\nvalue = [11, 17]"] ;
1118 -> 1119 ;
1120 [label="gini = 0.0\nsamples = 7\nvalue = [0, 7]"] ;
1119 -> 1120 ;
1121 [label="image_ratio <= 0.096\ngini = 0.499\nsamples = 21\nvalue = [11, 10]"] ;
1119 -> 1121 ;
1122 [label="html_ratio <= 0.188\ngini = 0.473\nsamples = 13\nvalue = [5, 8]"] ;
1121 -> 1122 ;
1123 [label="gini = 0.0\nsamples = 2\nvalue = [2, 0]"] ;
1122 -> 1123 ;
1124 [label="html_ratio <= 0.188\ngini = 0.397\nsamples = 11\nvalue = [3, 8]"] ;
1122 -> 1124 ;
1125 [label="gini = 0.0\nsamples = 5\nvalue = [0, 5]"] ;
1124 -> 1125 ;
1126 [label="image_ratio <= 0.063\ngini = 0.5\nsamples = 6\nvalue = [3, 3]"] ;
1124 -> 1126 ;
1127 [label="gini = 0.0\nsamples = 2\nvalue = [0, 2]"] ;
1126 -> 1127 ;
1128 [label="html_ratio <= 0.189\ngini = 0.375\nsamples = 4\nvalue = [3, 1]"] ;
1126 -> 1128 ;
1129 [label="gini = 0.0\nsamples = 3\nvalue = [3, 0]"] ;
1128 -> 1129 ;
1130 [label="gini = 0.0\nsamples = 1\nvalue = [0, 1]"] ;
1128 -> 1130 ;
1131 [label="html_ratio <= 0.188\ngini = 0.375\nsamples = 8\nvalue = [6, 2]"] ;
1121 -> 1131 ;
1132 [label="gini = 0.0\nsamples = 3\nvalue = [3, 0]"] ;
1131 -> 1132 ;
1133 [label="html_ratio <= 0.189\ngini = 0.48\nsamples = 5\nvalue = [3, 2]"] ;
1131 -> 1133 ;
1134 [label="html_ratio <= 0.188\ngini = 0.444\nsamples = 3\nvalue = [1, 2]"] ;
1133 -> 1134 ;
1135 [label="gini = 0.0\nsamples = 1\nvalue = [0, 1]"] ;
1134 -> 1135 ;
1136 [label="image_ratio <= 0.11\ngini = 0.5\nsamples = 2\nvalue = [1, 1]"] ;
1134 -> 1136 ;
1137 [label="gini = 0.0\nsamples = 1\nvalue = [0, 1]"] ;
1136 -> 1137 ;
1138 [label="gini = 0.0\nsamples = 1\nvalue = [1, 0]"] ;
1136 -> 1138 ;
1139 [label="gini = 0.0\nsamples = 2\nvalue = [2, 0]"] ;
1133 -> 1139 ;
1140 [label="image_ratio <= 0.178\ngini = 0.211\nsamples = 25\nvalue = [3, 22]"] ;
1118 -> 1140 ;
1141 [label="gini = 0.0\nsamples = 12\nvalue = [0, 12]"] ;
1140 -> 1141 ;
1142 [label="image_ratio <= 0.188\ngini = 0.355\nsamples = 13\nvalue = [3, 10]"] ;
1140 -> 1142 ;
1143 [label="gini = 0.0\nsamples = 1\nvalue = [1, 0]"] ;
1142 -> 1143 ;
1144 [label="html_ratio <= 0.188\ngini = 0.278\nsamples = 12\nvalue = [2, 10]"] ;
1142 -> 1144 ;
1145 [label="image_ratio <= 0.212\ngini = 0.444\nsamples = 6\nvalue = [2, 4]"] ;
1144 -> 1145 ;
1146 [label="gini = 0.0\nsamples = 3\nvalue = [0, 3]"] ;
1145 -> 1146 ;
1147 [label="image_ratio <= 0.236\ngini = 0.444\nsamples = 3\nvalue = [2, 1]"] ;
1145 -> 1147 ;
1148 [label="gini = 0.0\nsamples = 2\nvalue = [2, 0]"] ;
1147 -> 1148 ;
1149 [label="gini = 0.0\nsamples = 1\nvalue = [0, 1]"] ;
1147 -> 1149 ;
1150 [label="gini = 0.0\nsamples = 6\nvalue = [0, 6]"] ;
1144 -> 1150 ;
1151 [label="image_ratio <= 0.191\ngini = 0.444\nsamples = 15\nvalue = [10, 5]"] ;
1079 -> 1151 ;
1152 [label="image_ratio <= 0.094\ngini = 0.355\nsamples = 13\nvalue = [10, 3]"] ;
1151 -> 1152 ;
1153 [label="gini = 0.0\nsamples = 5\nvalue = [5, 0]"] ;
1152 -> 1153 ;
1154 [label="image_ratio <= 0.132\ngini = 0.469\nsamples = 8\nvalue = [5, 3]"] ;
1152 -> 1154 ;
1155 [label="html_ratio <= 0.19\ngini = 0.375\nsamples = 4\nvalue = [1, 3]"] ;
1154 -> 1155 ;
1156 [label="gini = 0.0\nsamples = 2\nvalue = [0, 2]"] ;
1155 -> 1156 ;
1157 [label="image_ratio <= 0.123\ngini = 0.5\nsamples = 2\nvalue = [1, 1]"] ;
1155 -> 1157 ;
1158 [label="gini = 0.0\nsamples = 1\nvalue = [1, 0]"] ;
1157 -> 1158 ;
1159 [label="gini = 0.0\nsamples = 1\nvalue = [0, 1]"] ;
1157 -> 1159 ;
1160 [label="gini = 0.0\nsamples = 4\nvalue = [4, 0]"] ;
1154 -> 1160 ;
1161 [label="gini = 0.0\nsamples = 2\nvalue = [0, 2]"] ;
1151 -> 1161 ;
1162 [label="html_ratio <= 0.192\ngini = 0.412\nsamples = 117\nvalue = [34, 83]"] ;
1078 -> 1162 ;
1163 [label="image_ratio <= 0.089\ngini = 0.271\nsamples = 31\nvalue = [5, 26]"] ;
1162 -> 1163 ;
1164 [label="gini = 0.0\nsamples = 11\nvalue = [0, 11]"] ;
1163 -> 1164 ;
1165 [label="image_ratio <= 0.09\ngini = 0.375\nsamples = 20\nvalue = [5, 15]"] ;
1163 -> 1165 ;
1166 [label="gini = 0.0\nsamples = 1\nvalue = [1, 0]"] ;
1165 -> 1166 ;
1167 [label="image_ratio <= 0.127\ngini = 0.332\nsamples = 19\nvalue = [4, 15]"] ;
1165 -> 1167 ;
1168 [label="gini = 0.0\nsamples = 5\nvalue = [0, 5]"] ;
1167 -> 1168 ;
1169 [label="image_ratio <= 0.205\ngini = 0.408\nsamples = 14\nvalue = [4, 10]"] ;
1167 -> 1169 ;
1170 [label="image_ratio <= 0.188\ngini = 0.494\nsamples = 9\nvalue = [4, 5]"] ;
1169 -> 1170 ;
1171 [label="image_ratio <= 0.131\ngini = 0.408\nsamples = 7\nvalue = [2, 5]"] ;
1170 -> 1171 ;
1172 [label="gini = 0.0\nsamples = 1\nvalue = [1, 0]"] ;
1171 -> 1172 ;
1173 [label="html_ratio <= 0.191\ngini = 0.278\nsamples = 6\nvalue = [1, 5]"] ;
1171 -> 1173 ;
1174 [label="gini = 0.0\nsamples = 4\nvalue = [0, 4]"] ;
1173 -> 1174 ;
1175 [label="html_ratio <= 0.192\ngini = 0.5\nsamples = 2\nvalue = [1, 1]"] ;
1173 -> 1175 ;
1176 [label="gini = 0.0\nsamples = 1\nvalue = [1, 0]"] ;
1175 -> 1176 ;
1177 [label="gini = 0.0\nsamples = 1\nvalue = [0, 1]"] ;
1175 -> 1177 ;
1178 [label="gini = 0.0\nsamples = 2\nvalue = [2, 0]"] ;
1170 -> 1178 ;
1179 [label="gini = 0.0\nsamples = 5\nvalue = [0, 5]"] ;
1169 -> 1179 ;
1180 [label="html_ratio <= 0.193\ngini = 0.447\nsamples = 86\nvalue = [29, 57]"] ;
1162 -> 1180 ;
1181 [label="gini = 0.0\nsamples = 3\nvalue = [3, 0]"] ;
1180 -> 1181 ;
1182 [label="image_ratio <= 0.049\ngini = 0.43\nsamples = 83\nvalue = [26, 57]"] ;
1180 -> 1182 ;
1183 [label="gini = 0.0\nsamples = 1\nvalue = [1, 0]"] ;
1182 -> 1183 ;
1184 [label="html_ratio <= 0.195\ngini = 0.424\nsamples = 82\nvalue = [25, 57]"] ;
1182 -> 1184 ;
1185 [label="html_ratio <= 0.195\ngini = 0.379\nsamples = 59\nvalue = [15, 44]"] ;
1184 -> 1185 ;
1186 [label="image_ratio <= 0.07\ngini = 0.418\nsamples = 47\nvalue = [14, 33]"] ;
1185 -> 1186 ;
1187 [label="image_ratio <= 0.055\ngini = 0.49\nsamples = 7\nvalue = [4, 3]"] ;
1186 -> 1187 ;
1188 [label="html_ratio <= 0.194\ngini = 0.375\nsamples = 4\nvalue = [1, 3]"] ;
1187 -> 1188 ;
1189 [label="gini = 0.0\nsamples = 2\nvalue = [0, 2]"] ;
1188 -> 1189 ;
1190 [label="image_ratio <= 0.05\ngini = 0.5\nsamples = 2\nvalue = [1, 1]"] ;
1188 -> 1190 ;
1191 [label="gini = 0.0\nsamples = 1\nvalue = [1, 0]"] ;
1190 -> 1191 ;
1192 [label="gini = 0.0\nsamples = 1\nvalue = [0, 1]"] ;
1190 -> 1192 ;
1193 [label="gini = 0.0\nsamples = 3\nvalue = [3, 0]"] ;
1187 -> 1193 ;
1194 [label="html_ratio <= 0.194\ngini = 0.375\nsamples = 40\nvalue = [10, 30]"] ;
1186 -> 1194 ;
1195 [label="html_ratio <= 0.194\ngini = 0.32\nsamples = 35\nvalue = [7, 28]"] ;
1194 -> 1195 ;
1196 [label="image_ratio <= 0.22\ngini = 0.42\nsamples = 20\nvalue = [6, 14]"] ;
1195 -> 1196 ;
1197 [label="html_ratio <= 0.193\ngini = 0.48\nsamples = 15\nvalue = [6, 9]"] ;
1196 -> 1197 ;
1198 [label="gini = 0.0\nsamples = 1\nvalue = [1, 0]"] ;
1197 -> 1198 ;
1199 [label="html_ratio <= 0.194\ngini = 0.459\nsamples = 14\nvalue = [5, 9]"] ;
1197 -> 1199 ;
1200 [label="image_ratio <= 0.211\ngini = 0.426\nsamples = 13\nvalue = [4, 9]"] ;
1199 -> 1200 ;
1201 [label="image_ratio <= 0.149\ngini = 0.375\nsamples = 12\nvalue = [3, 9]"] ;
1200 -> 1201 ;
1202 [label="image_ratio <= 0.131\ngini = 0.469\nsamples = 8\nvalue = [3, 5]"] ;
1201 -> 1202 ;
1203 [label="html_ratio <= 0.193\ngini = 0.408\nsamples = 7\nvalue = [2, 5]"] ;
1202 -> 1203 ;
1204 [label="gini = 0.0\nsamples = 3\nvalue = [0, 3]"] ;
1203 -> 1204 ;
1205 [label="html_ratio <= 0.193\ngini = 0.5\nsamples = 4\nvalue = [2, 2]"] ;
1203 -> 1205 ;
1206 [label="gini = 0.0\nsamples = 1\nvalue = [1, 0]"] ;
1205 -> 1206 ;
1207 [label="image_ratio <= 0.098\ngini = 0.444\nsamples = 3\nvalue = [1, 2]"] ;
1205 -> 1207 ;
1208 [label="gini = 0.0\nsamples = 1\nvalue = [0, 1]"] ;
1207 -> 1208 ;
1209 [label="html_ratio <= 0.193\ngini = 0.5\nsamples = 2\nvalue = [1, 1]"] ;
1207 -> 1209 ;
1210 [label="gini = 0.0\nsamples = 1\nvalue = [0, 1]"] ;
1209 -> 1210 ;
1211 [label="gini = 0.0\nsamples = 1\nvalue = [1, 0]"] ;
1209 -> 1211 ;
1212 [label="gini = 0.0\nsamples = 1\nvalue = [1, 0]"] ;
1202 -> 1212 ;
1213 [label="gini = 0.0\nsamples = 4\nvalue = [0, 4]"] ;
1201 -> 1213 ;
1214 [label="gini = 0.0\nsamples = 1\nvalue = [1, 0]"] ;
1200 -> 1214 ;
1215 [label="gini = 0.0\nsamples = 1\nvalue = [1, 0]"] ;
1199 -> 1215 ;
1216 [label="gini = 0.0\nsamples = 5\nvalue = [0, 5]"] ;
1196 -> 1216 ;
1217 [label="html_ratio <= 0.194\ngini = 0.124\nsamples = 15\nvalue = [1, 14]"] ;
1195 -> 1217 ;
1218 [label="gini = 0.0\nsamples = 11\nvalue = [0, 11]"] ;
1217 -> 1218 ;
1219 [label="html_ratio <= 0.194\ngini = 0.375\nsamples = 4\nvalue = [1, 3]"] ;
1217 -> 1219 ;
1220 [label="gini = 0.0\nsamples = 1\nvalue = [1, 0]"] ;
1219 -> 1220 ;
1221 [label="gini = 0.0\nsamples = 3\nvalue = [0, 3]"] ;
1219 -> 1221 ;
1222 [label="image_ratio <= 0.19\ngini = 0.48\nsamples = 5\nvalue = [3, 2]"] ;
1194 -> 1222 ;
1223 [label="html_ratio <= 0.195\ngini = 0.444\nsamples = 3\nvalue = [1, 2]"] ;
1222 -> 1223 ;
1224 [label="gini = 0.0\nsamples = 2\nvalue = [0, 2]"] ;
1223 -> 1224 ;
1225 [label="gini = 0.0\nsamples = 1\nvalue = [1, 0]"] ;
1223 -> 1225 ;
1226 [label="gini = 0.0\nsamples = 2\nvalue = [2, 0]"] ;
